tree
version=v4
num_class=1
num_tree_per_iteration=1
label_index=0
max_feature_idx=3029
objective=binary sigmoid:1
feature_names=Column_0 Column_1 Column_2 Column_3 Column_4 Column_5 Column_6 Column_7 Column_8 Column_9 Column_10 Column_11 Column_12 Column_13 Column_14 Column_15 Column_16 Column_17 Column_18 Column_19 Column_20 Column_21 Column_22 Column_23 Column_24 Column_25 Column_26 Column_27 Column_28 Column_29 Column_30 Column_31 Column_32 Column_33 Column_34 Column_35 Column_36 Column_37 Column_38 Column_39 Column_40 Column_41 Column_42 Column_43 Column_44 Column_45 Column_46 Column_47 Column_48 Column_49 Column_50 Column_51 Column_52 Column_53 Column_54 Column_55 Column_56 Column_57 Column_58 Column_59 Column_60 Column_61 Column_62 Column_63 Column_64 Column_65 Column_66 Column_67 Column_68 Column_69 Column_70 Column_71 Column_72 Column_73 Column_74 Column_75 Column_76 Column_77 Column_78 Column_79 Column_80 Column_81 Column_82 Column_83 Column_84 Column_85 Column_86 Column_87 Column_88 Column_89 Column_90 Column_91 Column_92 Column_93 Column_94 Column_95 Column_96 Column_97 Column_98 Column_99 Column_100 Column_101 Column_102 Column_103 Column_104 Column_105 Column_106 Column_107 Column_108 Column_109 Column_110 Column_111 Column_112 Column_113 Column_114 Column_115 Column_116 Column_117 Column_118 Column_119 Column_120 Column_121 Column_122 Column_123 Column_124 Column_125 Column_126 Column_127 Column_128 Column_129 Column_130 Column_131 Column_132 Column_133 Column_134 Column_135 Column_136 Column_137 Column_138 Column_139 Column_140 Column_141 Column_142 Column_143 Column_144 Column_145 Column_146 Column_147 Column_148 Column_149 Column_150 Column_151 Column_152 Column_153 Column_154 Column_155 Column_156 Column_157 Column_158 Column_159 Column_160 Column_161 Column_162 Column_163 Column_164 Column_165 Column_166 Column_167 Column_168 Column_169 Column_170 Column_171 Column_172 Column_173 Column_174 Column_175 Column_176 Column_177 Column_178 Column_179 Column_180 Column_181 Column_182 Column_183 Column_184 Column_185 Column_186 Column_187 Column_188 Column_189 Column_190 Column_191 Column_192 Column_193 Column_194 Column_195 Column_196 Column_197 Column_198 Column_199 Column_200 Column_201 Column_202 Column_203 Column_204 Column_205 Column_206 Column_207 Column_208 Column_209 Column_210 Column_211 Column_212 Column_213 Column_214 Column_215 Column_216 Column_217 Column_218 Column_219 Column_220 Column_221 Column_222 Column_223 Column_224 Column_225 Column_226 Column_227 Column_228 Column_229 Column_230 Column_231 Column_232 Column_233 Column_234 Column_235 Column_236 Column_237 Column_238 Column_239 Column_240 Column_241 Column_242 Column_243 Column_244 Column_245 Column_246 Column_247 Column_248 Column_249 Column_250 Column_251 Column_252 Column_253 Column_254 Column_255 Column_256 Column_257 Column_258 Column_259 Column_260 Column_261 Column_262 Column_263 Column_264 Column_265 Column_266 Column_267 Column_268 Column_269 Column_270 Column_271 Column_272 Column_273 Column_274 Column_275 Column_276 Column_277 Column_278 Column_279 Column_280 Column_281 Column_282 Column_283 Column_284 Column_285 Column_286 Column_287 Column_288 Column_289 Column_290 Column_291 Column_292 Column_293 Column_294 Column_295 Column_296 Column_297 Column_298 Column_299 Column_300 Column_301 Column_302 Column_303 Column_304 Column_305 Column_306 Column_307 Column_308 Column_309 Column_310 Column_311 Column_312 Column_313 Column_314 Column_315 Column_316 Column_317 Column_318 Column_319 Column_320 Column_321 Column_322 Column_323 Column_324 Column_325 Column_326 Column_327 Column_328 Column_329 Column_330 Column_331 Column_332 Column_333 Column_334 Column_335 Column_336 Column_337 Column_338 Column_339 Column_340 Column_341 Column_342 Column_343 Column_344 Column_345 Column_346 Column_347 Column_348 Column_349 Column_350 Column_351 Column_352 Column_353 Column_354 Column_355 Column_356 Column_357 Column_358 Column_359 Column_360 Column_361 Column_362 Column_363 Column_364 Column_365 Column_366 Column_367 Column_368 Column_369 Column_370 Column_371 Column_372 Column_373 Column_374 Column_375 Column_376 Column_377 Column_378 Column_379 Column_380 Column_381 Column_382 Column_383 Column_384 Column_385 Column_386 Column_387 Column_388 Column_389 Column_390 Column_391 Column_392 Column_393 Column_394 Column_395 Column_396 Column_397 Column_398 Column_399 Column_400 Column_401 Column_402 Column_403 Column_404 Column_405 Column_406 Column_407 Column_408 Column_409 Column_410 Column_411 Column_412 Column_413 Column_414 Column_415 Column_416 Column_417 Column_418 Column_419 Column_420 Column_421 Column_422 Column_423 Column_424 Column_425 Column_426 Column_427 Column_428 Column_429 Column_430 Column_431 Column_432 Column_433 Column_434 Column_435 Column_436 Column_437 Column_438 Column_439 Column_440 Column_441 Column_442 Column_443 Column_444 Column_445 Column_446 Column_447 Column_448 Column_449 Column_450 Column_451 Column_452 Column_453 Column_454 Column_455 Column_456 Column_457 Column_458 Column_459 Column_460 Column_461 Column_462 Column_463 Column_464 Column_465 Column_466 Column_467 Column_468 Column_469 Column_470 Column_471 Column_472 Column_473 Column_474 Column_475 Column_476 Column_477 Column_478 Column_479 Column_480 Column_481 Column_482 Column_483 Column_484 Column_485 Column_486 Column_487 Column_488 Column_489 Column_490 Column_491 Column_492 Column_493 Column_494 Column_495 Column_496 Column_497 Column_498 Column_499 Column_500 Column_501 Column_502 Column_503 Column_504 Column_505 Column_506 Column_507 Column_508 Column_509 Column_510 Column_511 Column_512 Column_513 Column_514 Column_515 Column_516 Column_517 Column_518 Column_519 Column_520 Column_521 Column_522 Column_523 Column_524 Column_525 Column_526 Column_527 Column_528 Column_529 Column_530 Column_531 Column_532 Column_533 Column_534 Column_535 Column_536 Column_537 Column_538 Column_539 Column_540 Column_541 Column_542 Column_543 Column_544 Column_545 Column_546 Column_547 Column_548 Column_549 Column_550 Column_551 Column_552 Column_553 Column_554 Column_555 Column_556 Column_557 Column_558 Column_559 Column_560 Column_561 Column_562 Column_563 Column_564 Column_565 Column_566 Column_567 Column_568 Column_569 Column_570 Column_571 Column_572 Column_573 Column_574 Column_575 Column_576 Column_577 Column_578 Column_579 Column_580 Column_581 Column_582 Column_583 Column_584 Column_585 Column_586 Column_587 Column_588 Column_589 Column_590 Column_591 Column_592 Column_593 Column_594 Column_595 Column_596 Column_597 Column_598 Column_599 Column_600 Column_601 Column_602 Column_603 Column_604 Column_605 Column_606 Column_607 Column_608 Column_609 Column_610 Column_611 Column_612 Column_613 Column_614 Column_615 Column_616 Column_617 Column_618 Column_619 Column_620 Column_621 Column_622 Column_623 Column_624 Column_625 Column_626 Column_627 Column_628 Column_629 Column_630 Column_631 Column_632 Column_633 Column_634 Column_635 Column_636 Column_637 Column_638 Column_639 Column_640 Column_641 Column_642 Column_643 Column_644 Column_645 Column_646 Column_647 Column_648 Column_649 Column_650 Column_651 Column_652 Column_653 Column_654 Column_655 Column_656 Column_657 Column_658 Column_659 Column_660 Column_661 Column_662 Column_663 Column_664 Column_665 Column_666 Column_667 Column_668 Column_669 Column_670 Column_671 Column_672 Column_673 Column_674 Column_675 Column_676 Column_677 Column_678 Column_679 Column_680 Column_681 Column_682 Column_683 Column_684 Column_685 Column_686 Column_687 Column_688 Column_689 Column_690 Column_691 Column_692 Column_693 Column_694 Column_695 Column_696 Column_697 Column_698 Column_699 Column_700 Column_701 Column_702 Column_703 Column_704 Column_705 Column_706 Column_707 Column_708 Column_709 Column_710 Column_711 Column_712 Column_713 Column_714 Column_715 Column_716 Column_717 Column_718 Column_719 Column_720 Column_721 Column_722 Column_723 Column_724 Column_725 Column_726 Column_727 Column_728 Column_729 Column_730 Column_731 Column_732 Column_733 Column_734 Column_735 Column_736 Column_737 Column_738 Column_739 Column_740 Column_741 Column_742 Column_743 Column_744 Column_745 Column_746 Column_747 Column_748 Column_749 Column_750 Column_751 Column_752 Column_753 Column_754 Column_755 Column_756 Column_757 Column_758 Column_759 Column_760 Column_761 Column_762 Column_763 Column_764 Column_765 Column_766 Column_767 Column_768 Column_769 Column_770 Column_771 Column_772 Column_773 Column_774 Column_775 Column_776 Column_777 Column_778 Column_779 Column_780 Column_781 Column_782 Column_783 Column_784 Column_785 Column_786 Column_787 Column_788 Column_789 Column_790 Column_791 Column_792 Column_793 Column_794 Column_795 Column_796 Column_797 Column_798 Column_799 Column_800 Column_801 Column_802 Column_803 Column_804 Column_805 Column_806 Column_807 Column_808 Column_809 Column_810 Column_811 Column_812 Column_813 Column_814 Column_815 Column_816 Column_817 Column_818 Column_819 Column_820 Column_821 Column_822 Column_823 Column_824 Column_825 Column_826 Column_827 Column_828 Column_829 Column_830 Column_831 Column_832 Column_833 Column_834 Column_835 Column_836 Column_837 Column_838 Column_839 Column_840 Column_841 Column_842 Column_843 Column_844 Column_845 Column_846 Column_847 Column_848 Column_849 Column_850 Column_851 Column_852 Column_853 Column_854 Column_855 Column_856 Column_857 Column_858 Column_859 Column_860 Column_861 Column_862 Column_863 Column_864 Column_865 Column_866 Column_867 Column_868 Column_869 Column_870 Column_871 Column_872 Column_873 Column_874 Column_875 Column_876 Column_877 Column_878 Column_879 Column_880 Column_881 Column_882 Column_883 Column_884 Column_885 Column_886 Column_887 Column_888 Column_889 Column_890 Column_891 Column_892 Column_893 Column_894 Column_895 Column_896 Column_897 Column_898 Column_899 Column_900 Column_901 Column_902 Column_903 Column_904 Column_905 Column_906 Column_907 Column_908 Column_909 Column_910 Column_911 Column_912 Column_913 Column_914 Column_915 Column_916 Column_917 Column_918 Column_919 Column_920 Column_921 Column_922 Column_923 Column_924 Column_925 Column_926 Column_927 Column_928 Column_929 Column_930 Column_931 Column_932 Column_933 Column_934 Column_935 Column_936 Column_937 Column_938 Column_939 Column_940 Column_941 Column_942 Column_943 Column_944 Column_945 Column_946 Column_947 Column_948 Column_949 Column_950 Column_951 Column_952 Column_953 Column_954 Column_955 Column_956 Column_957 Column_958 Column_959 Column_960 Column_961 Column_962 Column_963 Column_964 Column_965 Column_966 Column_967 Column_968 Column_969 Column_970 Column_971 Column_972 Column_973 Column_974 Column_975 Column_976 Column_977 Column_978 Column_979 Column_980 Column_981 Column_982 Column_983 Column_984 Column_985 Column_986 Column_987 Column_988 Column_989 Column_990 Column_991 Column_992 Column_993 Column_994 Column_995 Column_996 Column_997 Column_998 Column_999 Column_1000 Column_1001 Column_1002 Column_1003 Column_1004 Column_1005 Column_1006 Column_1007 Column_1008 Column_1009 Column_1010 Column_1011 Column_1012 Column_1013 Column_1014 Column_1015 Column_1016 Column_1017 Column_1018 Column_1019 Column_1020 Column_1021 Column_1022 Column_1023 Column_1024 Column_1025 Column_1026 Column_1027 Column_1028 Column_1029 Column_1030 Column_1031 Column_1032 Column_1033 Column_1034 Column_1035 Column_1036 Column_1037 Column_1038 Column_1039 Column_1040 Column_1041 Column_1042 Column_1043 Column_1044 Column_1045 Column_1046 Column_1047 Column_1048 Column_1049 Column_1050 Column_1051 Column_1052 Column_1053 Column_1054 Column_1055 Column_1056 Column_1057 Column_1058 Column_1059 Column_1060 Column_1061 Column_1062 Column_1063 Column_1064 Column_1065 Column_1066 Column_1067 Column_1068 Column_1069 Column_1070 Column_1071 Column_1072 Column_1073 Column_1074 Column_1075 Column_1076 Column_1077 Column_1078 Column_1079 Column_1080 Column_1081 Column_1082 Column_1083 Column_1084 Column_1085 Column_1086 Column_1087 Column_1088 Column_1089 Column_1090 Column_1091 Column_1092 Column_1093 Column_1094 Column_1095 Column_1096 Column_1097 Column_1098 Column_1099 Column_1100 Column_1101 Column_1102 Column_1103 Column_1104 Column_1105 Column_1106 Column_1107 Column_1108 Column_1109 Column_1110 Column_1111 Column_1112 Column_1113 Column_1114 Column_1115 Column_1116 Column_1117 Column_1118 Column_1119 Column_1120 Column_1121 Column_1122 Column_1123 Column_1124 Column_1125 Column_1126 Column_1127 Column_1128 Column_1129 Column_1130 Column_1131 Column_1132 Column_1133 Column_1134 Column_1135 Column_1136 Column_1137 Column_1138 Column_1139 Column_1140 Column_1141 Column_1142 Column_1143 Column_1144 Column_1145 Column_1146 Column_1147 Column_1148 Column_1149 Column_1150 Column_1151 Column_1152 Column_1153 Column_1154 Column_1155 Column_1156 Column_1157 Column_1158 Column_1159 Column_1160 Column_1161 Column_1162 Column_1163 Column_1164 Column_1165 Column_1166 Column_1167 Column_1168 Column_1169 Column_1170 Column_1171 Column_1172 Column_1173 Column_1174 Column_1175 Column_1176 Column_1177 Column_1178 Column_1179 Column_1180 Column_1181 Column_1182 Column_1183 Column_1184 Column_1185 Column_1186 Column_1187 Column_1188 Column_1189 Column_1190 Column_1191 Column_1192 Column_1193 Column_1194 Column_1195 Column_1196 Column_1197 Column_1198 Column_1199 Column_1200 Column_1201 Column_1202 Column_1203 Column_1204 Column_1205 Column_1206 Column_1207 Column_1208 Column_1209 Column_1210 Column_1211 Column_1212 Column_1213 Column_1214 Column_1215 Column_1216 Column_1217 Column_1218 Column_1219 Column_1220 Column_1221 Column_1222 Column_1223 Column_1224 Column_1225 Column_1226 Column_1227 Column_1228 Column_1229 Column_1230 Column_1231 Column_1232 Column_1233 Column_1234 Column_1235 Column_1236 Column_1237 Column_1238 Column_1239 Column_1240 Column_1241 Column_1242 Column_1243 Column_1244 Column_1245 Column_1246 Column_1247 Column_1248 Column_1249 Column_1250 Column_1251 Column_1252 Column_1253 Column_1254 Column_1255 Column_1256 Column_1257 Column_1258 Column_1259 Column_1260 Column_1261 Column_1262 Column_1263 Column_1264 Column_1265 Column_1266 Column_1267 Column_1268 Column_1269 Column_1270 Column_1271 Column_1272 Column_1273 Column_1274 Column_1275 Column_1276 Column_1277 Column_1278 Column_1279 Column_1280 Column_1281 Column_1282 Column_1283 Column_1284 Column_1285 Column_1286 Column_1287 Column_1288 Column_1289 Column_1290 Column_1291 Column_1292 Column_1293 Column_1294 Column_1295 Column_1296 Column_1297 Column_1298 Column_1299 Column_1300 Column_1301 Column_1302 Column_1303 Column_1304 Column_1305 Column_1306 Column_1307 Column_1308 Column_1309 Column_1310 Column_1311 Column_1312 Column_1313 Column_1314 Column_1315 Column_1316 Column_1317 Column_1318 Column_1319 Column_1320 Column_1321 Column_1322 Column_1323 Column_1324 Column_1325 Column_1326 Column_1327 Column_1328 Column_1329 Column_1330 Column_1331 Column_1332 Column_1333 Column_1334 Column_1335 Column_1336 Column_1337 Column_1338 Column_1339 Column_1340 Column_1341 Column_1342 Column_1343 Column_1344 Column_1345 Column_1346 Column_1347 Column_1348 Column_1349 Column_1350 Column_1351 Column_1352 Column_1353 Column_1354 Column_1355 Column_1356 Column_1357 Column_1358 Column_1359 Column_1360 Column_1361 Column_1362 Column_1363 Column_1364 Column_1365 Column_1366 Column_1367 Column_1368 Column_1369 Column_1370 Column_1371 Column_1372 Column_1373 Column_1374 Column_1375 Column_1376 Column_1377 Column_1378 Column_1379 Column_1380 Column_1381 Column_1382 Column_1383 Column_1384 Column_1385 Column_1386 Column_1387 Column_1388 Column_1389 Column_1390 Column_1391 Column_1392 Column_1393 Column_1394 Column_1395 Column_1396 Column_1397 Column_1398 Column_1399 Column_1400 Column_1401 Column_1402 Column_1403 Column_1404 Column_1405 Column_1406 Column_1407 Column_1408 Column_1409 Column_1410 Column_1411 Column_1412 Column_1413 Column_1414 Column_1415 Column_1416 Column_1417 Column_1418 Column_1419 Column_1420 Column_1421 Column_1422 Column_1423 Column_1424 Column_1425 Column_1426 Column_1427 Column_1428 Column_1429 Column_1430 Column_1431 Column_1432 Column_1433 Column_1434 Column_1435 Column_1436 Column_1437 Column_1438 Column_1439 Column_1440 Column_1441 Column_1442 Column_1443 Column_1444 Column_1445 Column_1446 Column_1447 Column_1448 Column_1449 Column_1450 Column_1451 Column_1452 Column_1453 Column_1454 Column_1455 Column_1456 Column_1457 Column_1458 Column_1459 Column_1460 Column_1461 Column_1462 Column_1463 Column_1464 Column_1465 Column_1466 Column_1467 Column_1468 Column_1469 Column_1470 Column_1471 Column_1472 Column_1473 Column_1474 Column_1475 Column_1476 Column_1477 Column_1478 Column_1479 Column_1480 Column_1481 Column_1482 Column_1483 Column_1484 Column_1485 Column_1486 Column_1487 Column_1488 Column_1489 Column_1490 Column_1491 Column_1492 Column_1493 Column_1494 Column_1495 Column_1496 Column_1497 Column_1498 Column_1499 Column_1500 Column_1501 Column_1502 Column_1503 Column_1504 Column_1505 Column_1506 Column_1507 Column_1508 Column_1509 Column_1510 Column_1511 Column_1512 Column_1513 Column_1514 Column_1515 Column_1516 Column_1517 Column_1518 Column_1519 Column_1520 Column_1521 Column_1522 Column_1523 Column_1524 Column_1525 Column_1526 Column_1527 Column_1528 Column_1529 Column_1530 Column_1531 Column_1532 Column_1533 Column_1534 Column_1535 Column_1536 Column_1537 Column_1538 Column_1539 Column_1540 Column_1541 Column_1542 Column_1543 Column_1544 Column_1545 Column_1546 Column_1547 Column_1548 Column_1549 Column_1550 Column_1551 Column_1552 Column_1553 Column_1554 Column_1555 Column_1556 Column_1557 Column_1558 Column_1559 Column_1560 Column_1561 Column_1562 Column_1563 Column_1564 Column_1565 Column_1566 Column_1567 Column_1568 Column_1569 Column_1570 Column_1571 Column_1572 Column_1573 Column_1574 Column_1575 Column_1576 Column_1577 Column_1578 Column_1579 Column_1580 Column_1581 Column_1582 Column_1583 Column_1584 Column_1585 Column_1586 Column_1587 Column_1588 Column_1589 Column_1590 Column_1591 Column_1592 Column_1593 Column_1594 Column_1595 Column_1596 Column_1597 Column_1598 Column_1599 Column_1600 Column_1601 Column_1602 Column_1603 Column_1604 Column_1605 Column_1606 Column_1607 Column_1608 Column_1609 Column_1610 Column_1611 Column_1612 Column_1613 Column_1614 Column_1615 Column_1616 Column_1617 Column_1618 Column_1619 Column_1620 Column_1621 Column_1622 Column_1623 Column_1624 Column_1625 Column_1626 Column_1627 Column_1628 Column_1629 Column_1630 Column_1631 Column_1632 Column_1633 Column_1634 Column_1635 Column_1636 Column_1637 Column_1638 Column_1639 Column_1640 Column_1641 Column_1642 Column_1643 Column_1644 Column_1645 Column_1646 Column_1647 Column_1648 Column_1649 Column_1650 Column_1651 Column_1652 Column_1653 Column_1654 Column_1655 Column_1656 Column_1657 Column_1658 Column_1659 Column_1660 Column_1661 Column_1662 Column_1663 Column_1664 Column_1665 Column_1666 Column_1667 Column_1668 Column_1669 Column_1670 Column_1671 Column_1672 Column_1673 Column_1674 Column_1675 Column_1676 Column_1677 Column_1678 Column_1679 Column_1680 Column_1681 Column_1682 Column_1683 Column_1684 Column_1685 Column_1686 Column_1687 Column_1688 Column_1689 Column_1690 Column_1691 Column_1692 Column_1693 Column_1694 Column_1695 Column_1696 Column_1697 Column_1698 Column_1699 Column_1700 Column_1701 Column_1702 Column_1703 Column_1704 Column_1705 Column_1706 Column_1707 Column_1708 Column_1709 Column_1710 Column_1711 Column_1712 Column_1713 Column_1714 Column_1715 Column_1716 Column_1717 Column_1718 Column_1719 Column_1720 Column_1721 Column_1722 Column_1723 Column_1724 Column_1725 Column_1726 Column_1727 Column_1728 Column_1729 Column_1730 Column_1731 Column_1732 Column_1733 Column_1734 Column_1735 Column_1736 Column_1737 Column_1738 Column_1739 Column_1740 Column_1741 Column_1742 Column_1743 Column_1744 Column_1745 Column_1746 Column_1747 Column_1748 Column_1749 Column_1750 Column_1751 Column_1752 Column_1753 Column_1754 Column_1755 Column_1756 Column_1757 Column_1758 Column_1759 Column_1760 Column_1761 Column_1762 Column_1763 Column_1764 Column_1765 Column_1766 Column_1767 Column_1768 Column_1769 Column_1770 Column_1771 Column_1772 Column_1773 Column_1774 Column_1775 Column_1776 Column_1777 Column_1778 Column_1779 Column_1780 Column_1781 Column_1782 Column_1783 Column_1784 Column_1785 Column_1786 Column_1787 Column_1788 Column_1789 Column_1790 Column_1791 Column_1792 Column_1793 Column_1794 Column_1795 Column_1796 Column_1797 Column_1798 Column_1799 Column_1800 Column_1801 Column_1802 Column_1803 Column_1804 Column_1805 Column_1806 Column_1807 Column_1808 Column_1809 Column_1810 Column_1811 Column_1812 Column_1813 Column_1814 Column_1815 Column_1816 Column_1817 Column_1818 Column_1819 Column_1820 Column_1821 Column_1822 Column_1823 Column_1824 Column_1825 Column_1826 Column_1827 Column_1828 Column_1829 Column_1830 Column_1831 Column_1832 Column_1833 Column_1834 Column_1835 Column_1836 Column_1837 Column_1838 Column_1839 Column_1840 Column_1841 Column_1842 Column_1843 Column_1844 Column_1845 Column_1846 Column_1847 Column_1848 Column_1849 Column_1850 Column_1851 Column_1852 Column_1853 Column_1854 Column_1855 Column_1856 Column_1857 Column_1858 Column_1859 Column_1860 Column_1861 Column_1862 Column_1863 Column_1864 Column_1865 Column_1866 Column_1867 Column_1868 Column_1869 Column_1870 Column_1871 Column_1872 Column_1873 Column_1874 Column_1875 Column_1876 Column_1877 Column_1878 Column_1879 Column_1880 Column_1881 Column_1882 Column_1883 Column_1884 Column_1885 Column_1886 Column_1887 Column_1888 Column_1889 Column_1890 Column_1891 Column_1892 Column_1893 Column_1894 Column_1895 Column_1896 Column_1897 Column_1898 Column_1899 Column_1900 Column_1901 Column_1902 Column_1903 Column_1904 Column_1905 Column_1906 Column_1907 Column_1908 Column_1909 Column_1910 Column_1911 Column_1912 Column_1913 Column_1914 Column_1915 Column_1916 Column_1917 Column_1918 Column_1919 Column_1920 Column_1921 Column_1922 Column_1923 Column_1924 Column_1925 Column_1926 Column_1927 Column_1928 Column_1929 Column_1930 Column_1931 Column_1932 Column_1933 Column_1934 Column_1935 Column_1936 Column_1937 Column_1938 Column_1939 Column_1940 Column_1941 Column_1942 Column_1943 Column_1944 Column_1945 Column_1946 Column_1947 Column_1948 Column_1949 Column_1950 Column_1951 Column_1952 Column_1953 Column_1954 Column_1955 Column_1956 Column_1957 Column_1958 Column_1959 Column_1960 Column_1961 Column_1962 Column_1963 Column_1964 Column_1965 Column_1966 Column_1967 Column_1968 Column_1969 Column_1970 Column_1971 Column_1972 Column_1973 Column_1974 Column_1975 Column_1976 Column_1977 Column_1978 Column_1979 Column_1980 Column_1981 Column_1982 Column_1983 Column_1984 Column_1985 Column_1986 Column_1987 Column_1988 Column_1989 Column_1990 Column_1991 Column_1992 Column_1993 Column_1994 Column_1995 Column_1996 Column_1997 Column_1998 Column_1999 Column_2000 Column_2001 Column_2002 Column_2003 Column_2004 Column_2005 Column_2006 Column_2007 Column_2008 Column_2009 Column_2010 Column_2011 Column_2012 Column_2013 Column_2014 Column_2015 Column_2016 Column_2017 Column_2018 Column_2019 Column_2020 Column_2021 Column_2022 Column_2023 Column_2024 Column_2025 Column_2026 Column_2027 Column_2028 Column_2029 Column_2030 Column_2031 Column_2032 Column_2033 Column_2034 Column_2035 Column_2036 Column_2037 Column_2038 Column_2039 Column_2040 Column_2041 Column_2042 Column_2043 Column_2044 Column_2045 Column_2046 Column_2047 Column_2048 Column_2049 Column_2050 Column_2051 Column_2052 Column_2053 Column_2054 Column_2055 Column_2056 Column_2057 Column_2058 Column_2059 Column_2060 Column_2061 Column_2062 Column_2063 Column_2064 Column_2065 Column_2066 Column_2067 Column_2068 Column_2069 Column_2070 Column_2071 Column_2072 Column_2073 Column_2074 Column_2075 Column_2076 Column_2077 Column_2078 Column_2079 Column_2080 Column_2081 Column_2082 Column_2083 Column_2084 Column_2085 Column_2086 Column_2087 Column_2088 Column_2089 Column_2090 Column_2091 Column_2092 Column_2093 Column_2094 Column_2095 Column_2096 Column_2097 Column_2098 Column_2099 Column_2100 Column_2101 Column_2102 Column_2103 Column_2104 Column_2105 Column_2106 Column_2107 Column_2108 Column_2109 Column_2110 Column_2111 Column_2112 Column_2113 Column_2114 Column_2115 Column_2116 Column_2117 Column_2118 Column_2119 Column_2120 Column_2121 Column_2122 Column_2123 Column_2124 Column_2125 Column_2126 Column_2127 Column_2128 Column_2129 Column_2130 Column_2131 Column_2132 Column_2133 Column_2134 Column_2135 Column_2136 Column_2137 Column_2138 Column_2139 Column_2140 Column_2141 Column_2142 Column_2143 Column_2144 Column_2145 Column_2146 Column_2147 Column_2148 Column_2149 Column_2150 Column_2151 Column_2152 Column_2153 Column_2154 Column_2155 Column_2156 Column_2157 Column_2158 Column_2159 Column_2160 Column_2161 Column_2162 Column_2163 Column_2164 Column_2165 Column_2166 Column_2167 Column_2168 Column_2169 Column_2170 Column_2171 Column_2172 Column_2173 Column_2174 Column_2175 Column_2176 Column_2177 Column_2178 Column_2179 Column_2180 Column_2181 Column_2182 Column_2183 Column_2184 Column_2185 Column_2186 Column_2187 Column_2188 Column_2189 Column_2190 Column_2191 Column_2192 Column_2193 Column_2194 Column_2195 Column_2196 Column_2197 Column_2198 Column_2199 Column_2200 Column_2201 Column_2202 Column_2203 Column_2204 Column_2205 Column_2206 Column_2207 Column_2208 Column_2209 Column_2210 Column_2211 Column_2212 Column_2213 Column_2214 Column_2215 Column_2216 Column_2217 Column_2218 Column_2219 Column_2220 Column_2221 Column_2222 Column_2223 Column_2224 Column_2225 Column_2226 Column_2227 Column_2228 Column_2229 Column_2230 Column_2231 Column_2232 Column_2233 Column_2234 Column_2235 Column_2236 Column_2237 Column_2238 Column_2239 Column_2240 Column_2241 Column_2242 Column_2243 Column_2244 Column_2245 Column_2246 Column_2247 Column_2248 Column_2249 Column_2250 Column_2251 Column_2252 Column_2253 Column_2254 Column_2255 Column_2256 Column_2257 Column_2258 Column_2259 Column_2260 Column_2261 Column_2262 Column_2263 Column_2264 Column_2265 Column_2266 Column_2267 Column_2268 Column_2269 Column_2270 Column_2271 Column_2272 Column_2273 Column_2274 Column_2275 Column_2276 Column_2277 Column_2278 Column_2279 Column_2280 Column_2281 Column_2282 Column_2283 Column_2284 Column_2285 Column_2286 Column_2287 Column_2288 Column_2289 Column_2290 Column_2291 Column_2292 Column_2293 Column_2294 Column_2295 Column_2296 Column_2297 Column_2298 Column_2299 Column_2300 Column_2301 Column_2302 Column_2303 Column_2304 Column_2305 Column_2306 Column_2307 Column_2308 Column_2309 Column_2310 Column_2311 Column_2312 Column_2313 Column_2314 Column_2315 Column_2316 Column_2317 Column_2318 Column_2319 Column_2320 Column_2321 Column_2322 Column_2323 Column_2324 Column_2325 Column_2326 Column_2327 Column_2328 Column_2329 Column_2330 Column_2331 Column_2332 Column_2333 Column_2334 Column_2335 Column_2336 Column_2337 Column_2338 Column_2339 Column_2340 Column_2341 Column_2342 Column_2343 Column_2344 Column_2345 Column_2346 Column_2347 Column_2348 Column_2349 Column_2350 Column_2351 Column_2352 Column_2353 Column_2354 Column_2355 Column_2356 Column_2357 Column_2358 Column_2359 Column_2360 Column_2361 Column_2362 Column_2363 Column_2364 Column_2365 Column_2366 Column_2367 Column_2368 Column_2369 Column_2370 Column_2371 Column_2372 Column_2373 Column_2374 Column_2375 Column_2376 Column_2377 Column_2378 Column_2379 Column_2380 Column_2381 Column_2382 Column_2383 Column_2384 Column_2385 Column_2386 Column_2387 Column_2388 Column_2389 Column_2390 Column_2391 Column_2392 Column_2393 Column_2394 Column_2395 Column_2396 Column_2397 Column_2398 Column_2399 Column_2400 Column_2401 Column_2402 Column_2403 Column_2404 Column_2405 Column_2406 Column_2407 Column_2408 Column_2409 Column_2410 Column_2411 Column_2412 Column_2413 Column_2414 Column_2415 Column_2416 Column_2417 Column_2418 Column_2419 Column_2420 Column_2421 Column_2422 Column_2423 Column_2424 Column_2425 Column_2426 Column_2427 Column_2428 Column_2429 Column_2430 Column_2431 Column_2432 Column_2433 Column_2434 Column_2435 Column_2436 Column_2437 Column_2438 Column_2439 Column_2440 Column_2441 Column_2442 Column_2443 Column_2444 Column_2445 Column_2446 Column_2447 Column_2448 Column_2449 Column_2450 Column_2451 Column_2452 Column_2453 Column_2454 Column_2455 Column_2456 Column_2457 Column_2458 Column_2459 Column_2460 Column_2461 Column_2462 Column_2463 Column_2464 Column_2465 Column_2466 Column_2467 Column_2468 Column_2469 Column_2470 Column_2471 Column_2472 Column_2473 Column_2474 Column_2475 Column_2476 Column_2477 Column_2478 Column_2479 Column_2480 Column_2481 Column_2482 Column_2483 Column_2484 Column_2485 Column_2486 Column_2487 Column_2488 Column_2489 Column_2490 Column_2491 Column_2492 Column_2493 Column_2494 Column_2495 Column_2496 Column_2497 Column_2498 Column_2499 Column_2500 Column_2501 Column_2502 Column_2503 Column_2504 Column_2505 Column_2506 Column_2507 Column_2508 Column_2509 Column_2510 Column_2511 Column_2512 Column_2513 Column_2514 Column_2515 Column_2516 Column_2517 Column_2518 Column_2519 Column_2520 Column_2521 Column_2522 Column_2523 Column_2524 Column_2525 Column_2526 Column_2527 Column_2528 Column_2529 Column_2530 Column_2531 Column_2532 Column_2533 Column_2534 Column_2535 Column_2536 Column_2537 Column_2538 Column_2539 Column_2540 Column_2541 Column_2542 Column_2543 Column_2544 Column_2545 Column_2546 Column_2547 Column_2548 Column_2549 Column_2550 Column_2551 Column_2552 Column_2553 Column_2554 Column_2555 Column_2556 Column_2557 Column_2558 Column_2559 Column_2560 Column_2561 Column_2562 Column_2563 Column_2564 Column_2565 Column_2566 Column_2567 Column_2568 Column_2569 Column_2570 Column_2571 Column_2572 Column_2573 Column_2574 Column_2575 Column_2576 Column_2577 Column_2578 Column_2579 Column_2580 Column_2581 Column_2582 Column_2583 Column_2584 Column_2585 Column_2586 Column_2587 Column_2588 Column_2589 Column_2590 Column_2591 Column_2592 Column_2593 Column_2594 Column_2595 Column_2596 Column_2597 Column_2598 Column_2599 Column_2600 Column_2601 Column_2602 Column_2603 Column_2604 Column_2605 Column_2606 Column_2607 Column_2608 Column_2609 Column_2610 Column_2611 Column_2612 Column_2613 Column_2614 Column_2615 Column_2616 Column_2617 Column_2618 Column_2619 Column_2620 Column_2621 Column_2622 Column_2623 Column_2624 Column_2625 Column_2626 Column_2627 Column_2628 Column_2629 Column_2630 Column_2631 Column_2632 Column_2633 Column_2634 Column_2635 Column_2636 Column_2637 Column_2638 Column_2639 Column_2640 Column_2641 Column_2642 Column_2643 Column_2644 Column_2645 Column_2646 Column_2647 Column_2648 Column_2649 Column_2650 Column_2651 Column_2652 Column_2653 Column_2654 Column_2655 Column_2656 Column_2657 Column_2658 Column_2659 Column_2660 Column_2661 Column_2662 Column_2663 Column_2664 Column_2665 Column_2666 Column_2667 Column_2668 Column_2669 Column_2670 Column_2671 Column_2672 Column_2673 Column_2674 Column_2675 Column_2676 Column_2677 Column_2678 Column_2679 Column_2680 Column_2681 Column_2682 Column_2683 Column_2684 Column_2685 Column_2686 Column_2687 Column_2688 Column_2689 Column_2690 Column_2691 Column_2692 Column_2693 Column_2694 Column_2695 Column_2696 Column_2697 Column_2698 Column_2699 Column_2700 Column_2701 Column_2702 Column_2703 Column_2704 Column_2705 Column_2706 Column_2707 Column_2708 Column_2709 Column_2710 Column_2711 Column_2712 Column_2713 Column_2714 Column_2715 Column_2716 Column_2717 Column_2718 Column_2719 Column_2720 Column_2721 Column_2722 Column_2723 Column_2724 Column_2725 Column_2726 Column_2727 Column_2728 Column_2729 Column_2730 Column_2731 Column_2732 Column_2733 Column_2734 Column_2735 Column_2736 Column_2737 Column_2738 Column_2739 Column_2740 Column_2741 Column_2742 Column_2743 Column_2744 Column_2745 Column_2746 Column_2747 Column_2748 Column_2749 Column_2750 Column_2751 Column_2752 Column_2753 Column_2754 Column_2755 Column_2756 Column_2757 Column_2758 Column_2759 Column_2760 Column_2761 Column_2762 Column_2763 Column_2764 Column_2765 Column_2766 Column_2767 Column_2768 Column_2769 Column_2770 Column_2771 Column_2772 Column_2773 Column_2774 Column_2775 Column_2776 Column_2777 Column_2778 Column_2779 Column_2780 Column_2781 Column_2782 Column_2783 Column_2784 Column_2785 Column_2786 Column_2787 Column_2788 Column_2789 Column_2790 Column_2791 Column_2792 Column_2793 Column_2794 Column_2795 Column_2796 Column_2797 Column_2798 Column_2799 Column_2800 Column_2801 Column_2802 Column_2803 Column_2804 Column_2805 Column_2806 Column_2807 Column_2808 Column_2809 Column_2810 Column_2811 Column_2812 Column_2813 Column_2814 Column_2815 Column_2816 Column_2817 Column_2818 Column_2819 Column_2820 Column_2821 Column_2822 Column_2823 Column_2824 Column_2825 Column_2826 Column_2827 Column_2828 Column_2829 Column_2830 Column_2831 Column_2832 Column_2833 Column_2834 Column_2835 Column_2836 Column_2837 Column_2838 Column_2839 Column_2840 Column_2841 Column_2842 Column_2843 Column_2844 Column_2845 Column_2846 Column_2847 Column_2848 Column_2849 Column_2850 Column_2851 Column_2852 Column_2853 Column_2854 Column_2855 Column_2856 Column_2857 Column_2858 Column_2859 Column_2860 Column_2861 Column_2862 Column_2863 Column_2864 Column_2865 Column_2866 Column_2867 Column_2868 Column_2869 Column_2870 Column_2871 Column_2872 Column_2873 Column_2874 Column_2875 Column_2876 Column_2877 Column_2878 Column_2879 Column_2880 Column_2881 Column_2882 Column_2883 Column_2884 Column_2885 Column_2886 Column_2887 Column_2888 Column_2889 Column_2890 Column_2891 Column_2892 Column_2893 Column_2894 Column_2895 Column_2896 Column_2897 Column_2898 Column_2899 Column_2900 Column_2901 Column_2902 Column_2903 Column_2904 Column_2905 Column_2906 Column_2907 Column_2908 Column_2909 Column_2910 Column_2911 Column_2912 Column_2913 Column_2914 Column_2915 Column_2916 Column_2917 Column_2918 Column_2919 Column_2920 Column_2921 Column_2922 Column_2923 Column_2924 Column_2925 Column_2926 Column_2927 Column_2928 Column_2929 Column_2930 Column_2931 Column_2932 Column_2933 Column_2934 Column_2935 Column_2936 Column_2937 Column_2938 Column_2939 Column_2940 Column_2941 Column_2942 Column_2943 Column_2944 Column_2945 Column_2946 Column_2947 Column_2948 Column_2949 Column_2950 Column_2951 Column_2952 Column_2953 Column_2954 Column_2955 Column_2956 Column_2957 Column_2958 Column_2959 Column_2960 Column_2961 Column_2962 Column_2963 Column_2964 Column_2965 Column_2966 Column_2967 Column_2968 Column_2969 Column_2970 Column_2971 Column_2972 Column_2973 Column_2974 Column_2975 Column_2976 Column_2977 Column_2978 Column_2979 Column_2980 Column_2981 Column_2982 Column_2983 Column_2984 Column_2985 Column_2986 Column_2987 Column_2988 Column_2989 Column_2990 Column_2991 Column_2992 Column_2993 Column_2994 Column_2995 Column_2996 Column_2997 Column_2998 Column_2999 Column_3000 Column_3001 Column_3002 Column_3003 Column_3004 Column_3005 Column_3006 Column_3007 Column_3008 Column_3009 Column_3010 Column_3011 Column_3012 Column_3013 Column_3014 Column_3015 Column_3016 Column_3017 Column_3018 Column_3019 Column_3020 Column_3021 Column_3022 Column_3023 Column_3024 Column_3025 Column_3026 Column_3027 Column_3028 Column_3029
feature_infos=[2:1436] [0:26] [0:34] [0:50] [0:347] [0:153] [0:1] [0:1] [0:70] [0:22] [0:230] [0:1] [0:1] [0:997] [0:1393] [0:42] [1:7.2196137650960157] [0:0.79661016949152541] [0:0.31924882629107981] [1:156] [1.3999999999999999:71] [0:1] [0:1] [0:1] [0:1] [0:1] [0:1] [0:1] [0:1] [0:1] [0:0.4609294656072383] [0:0.53525899639879559] [0:0.73724933857301345] [0:0.50652741612325847] [0:0.32709514286284908] [0:0.31296999620163507] [0:0.47714811524120032] [0:0.24742565277903047] [0:0.24961723985261788] [0:0.22076123927237482] [0:0.22076628173025636] [0:0.22076641801501209] [0:0.63317097210282136] [0:0.66540633531836901] [0:0.57090643332895541] [0:0.63684897510125416] [0:0.58926824903643116] [0:0.4539835481311395] [0:0.45457333039211723] [0:0.45746559956451532] [0:0.40051498615592424] [0:0.33989410033663109] [0:0.23125565845475565] [0:0.91380227230141964] [0:0.86889763617838833] [0:0.50589636925746662] [0:0.50596758609168124] [0:0.4100286141503221] [0:0.47414898813975731] [0:0.47414898813975731] [0:0.34285771934181025] [0:0.39527354464287734] [0:0.39527354464287734] [0:0.39542113997281525] [0:0.40599486551110581] [0:0.40606811884710925] [0:0.40628852505071111] [0:0.40054692293203242] [0:0.40063025089075849] [0:0.40142216187395474] [0:0.26377945891637938] [0:0.23464727573421831] [0:0.15584180442095327] [0:0.39244670063192444] [0:0.19227955816404468] [0:0.18749501417164779] [0:0.14667557291852917] [0:0.14668173123504666] [0:0.14668173123504666] [0:0.37724245009438367] [0:0.15844305442648582] [0:0.15844305442648582] [0:0.3585236322076743] [0:0.30958505812828341] [0:0.29360636584265454] [0:0.28720031815580838] [0:0.12680237617913145] [0:0.12687157338111169] [0:0.12688024037435225] [0:0.17480358284318961] [0:0.16373819959165176] [0:0.16373819959165176] [0:0.45680056943882996] [0:0.36999120369550664] [0:0.42788955401670531] [0:0.41886132892678701] [0:0.51187005969041333] [0:0.32212724206994242] [0:0.32811186648200219] [0:0.4022900518338493] [0:0.73051884255657362] [0:0.39351585078102891] [0:0.41229896156553025] [0:0.41922793427022781] [0:0.7351819616312012] [0:0.49331317322980262] [0:0.46718936476446543] [0:0.46058472587755778] [0:0.37093667970013666] [0:0.31871050264787093] [0:0.46665566141213244] [0:0.43015853025459999] [0:0.46603709087034095] [0:0.3910807142994086] [0:0.44981339925863995] [0:0.36391322446910462] [0:0.31383971188507609] [0:0.39905423318163163] [0:0.41975014964493568] [0:0.43556608487782988] [0:0.48685438703963779] [0:0.43854439367016496] [0:0.32713334257048265] [0:0.51153205743552344] [0:0.41104289037051017] [0:0.39001070219080708] [0:0.44536698286952753] [0:0.41060375919425707] [0:0.40180754288790421] [0:0.50271321725127538] [0:0.50043473144439421] [0:0.44123068701755891] [0:0.3733779992310387] [0:0.33208089559771165] [0:0.40977550954653408] [0:0.42402199386153072] [0:0.4683594465350745] [0:0.40876971375820115] [0:0.37535981767190685] [0:0.77599864553722042] [0:0.39002031832631007] [0:0.48903093533040259] [0:0.40491478023551553] [0:0.39529536494895573] [0:0.39407885072969878] [0:0.52314569097730479] [0:0.76441710623652137] [0:0.37684638996224978] [0:0.5263511923077121] [0:0.4519933104690223] [0:0.52101658761487091] [0:0.31762251943164027] [0:0.2959721636189066] [0:0.48335988521105944] [0:0.42580019644192368] [0:0.47360860932226573] [0:0.47096946939215595] [0:0.3908662228049477] [0:0.40623827245619964] [0:0.39092779091502949] [0:0.50063668643237191] [0:0.42396810950879943] [0:0.42929667653950565] [0:0.48184841640421144] [0:0.44784000605576574] [0:0.4025768682607313] [0:0.29521026436120312] [0:0.58744636642399894] [0:0.32487837493829425] [0:0.34479894833850511] [0:0.47828775203892171] [0:0.32989644470846446] [0:0.23980349791150549] [0:0.53988692163212215] [0:1] [0:0.35458405618905486] [0:0.35779750554236617] [0:0.35907065653466436] [0:0.37711584458651798] [0:0.32900263712293115] [0:0.35256285807679782] [0:0.44047034457712675] [0:0.4675698791772066] [0:0.45898992819359186] [0:0.62400999041346472] [0:0.49640277963496726] [0:0.54022048020009172] [0:1] [0:0.35439592041589285] [0:0.35710294236179674] [0:0.27545475068651776] [0:0.51969853409863809] [0:0.31853559458623792] [0:0.5863514474372884] [0:0.39799898866247907] [0:0.28536352722120278] [0:0.55867518987937415] [0:0.42829958668704338] [0:0.30244329853402152] [0:1] [0:1] [0:0.38474505580516999] [0:0.43148287049047046] [0:0.27988179003609931] [0:0.3948929679849158] [0:0.39664695111627579] [0:0.45246605523033512] [0:0.42654423407491449] [0:0.93555829875165397] [0:0.5497018085923393] [0:0.51454719315091113] [0:0.44472417223874378] [0:0.51050382542183892] [0:1] [0:0.58549821745125341] [0:0.50298069369302589] [0:0.40437025676659999] [0:0.46983211734513641] [0:0.33411481485032968] [0:0.3345722810381086] [0:0.5420948194890659] [0:0.38055109670256887] [0:0.55772371669163956] [0:0.42890691845038992] [0:0.24745034888169257] [0:0.32095132962917755] [0:0.2665359883394014] [0:0.63846005699546093] [0:0.58961415579340448] [0:0.40735415532334229] [0:0.41510881439692798] [0:0.42889348592898474] [0:0.42997107044201938] [0:0.69404268398436031] [0:0.44526462244612941] [0:0.39499277548884726] [0:0.63997757400476152] [0:0.44939871469860021] [0:0.45079156104411938] [0:0.36774400901226462] [0:0.37550506140227491] [0:0.39042074667141941] [0:0.5749291532580888] [0:0.74185089304456464] [0:0.58633917557970794] [0:0.59055169877434677] [0:0.4586145947996304] [0:0.35287109821486773] [0:0.69673159716764443] [0:0.42243604406692387] [0:0.40774130086910965] [0:0.48201079384790674] [0:0.57902674213068994] [0:0.58188839696029937] [0:0.5025664614637303] [0:0.41437393883147244] [0:0.45071459655210755] [0:0.41637934346368699] [0:0.33164347183454251] [0:0.4733836859583474] [0:0.25940166516289342] [0:0.21363610398039734] [0:1] [0:0.3727234627525019] [0:0.38806671630174777] [0:0.53918215657291768] [0:1] [0:1] [0:0.57990334444054348] [0:0.42043408311415081] [0:0.58733217374674052] [0:0.48807217585884649] [0:0.59416766026728973] [0:0.52563126294531592] [0:0.53236557204824808] [0:0.47087416385892511] [0:0.43546621787032752] [0:0.36011462810127104] [0:0.39385980114055191] [0:0.62590765563576312] [0:0.42115001644653677] [0:0.45198871349948039] [0:0.54941631832803117] [0:0.27795420517461367] [0:0.27808562550991384] [0:0.57840366313320446] [0:0.57850262290159271] [0:0.35945483430873931] [0:0.54854229756557593] [0:0.47998471883999144] [0:0.4392839338911807] [0:0.4249848873027034] [0:0.4197600465317326] [0:0.44806081700451206] [0:0.41333550985980316] [0:0.41937432440284078] [0:0.43868960639164822] [0:0.43016920745810205] [0:0.44078659567758616] [0:0.40034154234146041] [0:0.41389719844999862] [0:0.42178130322015411] [0:0.39209679083206816] [0:0.45311921239989555] [0:0.42637052359412286] [0:0.40674024795299052] [0:0.41633800443205715] [0:0.40550545377720409] [0:0.3178723606413959] [0:0.46283960809798147] [0:0.46457813957552713] [0:0.42025569168595511] [0:0.40870385317016439] [0:0.46394926431721933] [0:0.41234913917657112] [0:0.41453811011064196] [0:0.46598615659563747] [0:0.41564653575368826] [0:0.38983387535804892] [0:0.46608225715688689] [0:0.39391153888674796] [0:0.48541864375755395] [0:0.47267353282380664] [0:0.45309999247596766] [0:0.42101381100643226] [0:0.42161243501005607] [0:0.42423936147765323] [0:0.4428879235767843] [0:0.43910514118760513] [0:0.40254421372860161] [0:0.41304817107035774] [0:0.40709619963579619] [0:0.43312841898500115] [0:0.42423478925451624] [0:0.46718874125371479] [0:0.42354630776541485] [0:0.47622325618213995] [0:0.44731373179636241] [0:0.40620464973753057] [0:0.44044056434617029] [0:0.41703300119705045] [0:0.46043752754401923] [0:0.46697866896319895] [0:0.41850388356103962] [0:0.39796857557075771] [0:0.42674748110549993] [0:0.42357017000273939] [0:0.44542863165005747] [0:0.43596496845701149] [0:0.43792341472650564] [0:0.4358666753887992] [0:0.43231524687347611] [0:0.42206048064548907] [0:0.45718708125443386] [0:0.44400122073901949] [0:0.42760529971984207] [0:0.42564025753281148] [0:0.40301534117110999] [0:0.35515436675427831] [0:0.39954906744153107] [0:0.44021924470041668] [0:0.48357346581884381] [0:0.46735521957496989] [0:0.40559537516438732] [0:0.36616847983475509] [0:0.42124302232820021] [0:0.31339825446765918] [0:0.27545602055893453] [0:0.49981899785989431] [0:0.49956538640710335] [0:0.49728657202420323] [0:0.41317996123583073] [0:0.59268617833346404] [0:0.52942088812576038] [0:0.63110905660929117] [0:0.44343988623702735] [0:0.44216536312177246] [0:0.39930199559270729] [0:0.56244713478312736] [0:0.51314534143165802] [0:0.4994609721912851] [0:0.43347775940940592] [0:0.54189328447737151] [0:0.51070679526283091] [0:0.47832642140587567] [0:0.4222623181733553] [0:0.38487268454092743] [0:0.35607521562300842] [0:0.50938376554963982] [0:0.5089394225261511] [0:0.4447285079650295] [0:0.39062429234206092] [0:0.56170695564159634] [0:0.45684210801694569] [0:0.49902135354425609] [0:0.4489403269351892] [0:0.52770190782378046] [0:0.51174489858686489] [0:0.34481759964555037] [0:0.39614075902323992] [0:0.55980031843129563] [0:0.50851239632385681] [0:0.57062544879116661] [0:0.41463243333830002] [0:0.43489024393511555] [0:0.36469398654391327] [0:0.31452330019355179] [0:0.37389679986676516] [0:0.33940013402340569] [0:0.5087819638767318] [0:0.38220226574198435] [0:0.42035113033346505] [0:0.54723806290163246] [0:0.38724709480161335] [0:0.39286867497814509] [0:0.37222499109775037] [0:0.38087453254381942] [0:0.26802026701700743] [0:0.50031211933418107] [0:0.39488005012622057] [0:0.51256043012355323] [0:0.45818643091519728] [0:0.51141177949311167] [0:0.47022143581376014] [0:0.36747920389925343] [0:0.46479539428411942] [0:0.43328568323589589] [0:0.47148131013282013] [0:0.41091451071562252] [0:0.51602574612244434] [0:0.45363937009180083] [0:0.4563648759039779] [0:0.39164133454942013] [0:0.48844877140381177] [0:0.49518411140424096] [0:0.36363779145144598] [0:0.362569662995395] [0:0.36409124703258783] [0:0.50028235017224532] [0:0.50697147073011084] [0:0.37911249750644266] [0:0.32325793184438634] [0:0.25393396710375893] [0:0.2421321095807627] [0:0.24419722455501633] [0:0.50653465010931986] [0:0.47414462122846385] [0:0.51084681563966805] [0:0.52423842831618894] [0:0.49872184617944754] [0:0.42937030072487914] [0:0.48172487187071383] [0:0.36896741757942092] [0:0.39083291836658174] [0:0.31333050772971555] [0:0.29903334773341278] [0:0.35771837170382492] [0:0.39446319849670991] [0:0.55478325575184029] [0:0.48074911713152041] [0:0.73309665977652072] [0:0.52844553527103766] [0:0.57791941443759742] [0:0.53728182017633963] [0:0.35880441273358582] [0:0.33219694100399344] [0:0.35315540889178065] [0:0.48510153316759652] [0:0.51502937078417166] [0:0.41506532009796526] [0:0.38675371924840068] [0:0.324825042181829] [0:0.3979759762266814] [0:0.4567961317222734] [0:0.30230356121381657] [0:0.30249526454243708] [0:0.511804130111568] [0:0.59810843809228453] [0:0.51380762708694727] [0:0.41657627119733143] [0:0.46241625292390054] [0:0.40910549484022668] [0:0.32820145923391952] [0:0.30817146444574994] [0:0.33697990822079932] [0:0.46081672725685296] [0:0.36943694714959319] [0:0.45153960128443649] [0:0.45272410671859431] [0:0.49865969324955217] [0:0.47592152109162839] [0:0.47922084226981715] [0:0.57697005516255484] [0:0.39010572029755197] [0:0.48967018392967787] [0:0.39732409984934663] [0:0.41728098093745808] [0:0.49207159130570716] [0:0.5831254819199797] [0:0.37452728249009309] [0:0.40849802714742811] [0:0.36434666104206326] [0:0.49933562727999814] [0:0.49649837218854248] [0:0.38149835149223854] [0:0.36124132969821593] [0:0.32225843623764311] [0:0.51370141335446595] [0:0.35969009290095533] [0:0.36399651118137744] [0:0.29463330552626454] [0:0.41090400062086624] [0:0.41691542883703525] [0:0.60476216782157199] [0:0.50258359480384152] [0:0.58669288188013968] [0:0.51463060925380966] [0:0.52003442767828756] [0:0.33983893885632227] [0:0.28629437389399554] [0:0.4760274335295604] [0:0.3942295898306909] [0:0.30061482902582803] [0:0.37835792630086973] [0:0.40691026924678309] [0:0.42533334097016562] [0:0.32738679024817691] [0:0.32424618956341639] [0:0.53834474759492001] [0:0.58607334519844145] [0:0.34729001972800838] [0:0.42898107197405744] [0:0.27341508165900202] [0:0.23526616015771595] [0:0.90535118331749964] [0:0.72440434717198277] [0:0.71719613743433597] [0:0.50610139385381236] [0:0.42629125266861195] [0:0.58575636222700911] [0:0.47276147661560441] [0:0.31452615878324708] [0:0.53563920063592174] [0:0.61548718992516682] [0:0.34087349813545642] [0:0.52555348316040063] [0:0.62587806864017859] [0:0.46208224419631994] [0:0.24741471462171186] [0:1] [0:0.53143292147179455] [0:0.43741756296578882] [0:0.38859799771901593] [0:0.27541815378252354] [0:0.62431582830672394] [0:0.5271424660275712] [0:0.78793998116218811] [0:0.7581802151183612] [0:0.63001543374964197] [0:0.5926145696684586] [0:0.22077527676239461] [0:0.48000181831688304] [0:0.43935519734344602] [0:0.4249848873027034] [0:0.41976906139404702] [0:0.44809892778826982] [0:0.41336079986928459] [0:0.41937432440284078] [0:0.438711950903106] [0:0.43017843613723694] [0:0.44083802883826101] [0:0.40037711731143005] [0:0.4139199857299356] [0:0.42180123047508888] [0:0.39214189624475992] [0:0.45317271533743708] [0:0.42656059836092136] [0:0.40674751464197784] [0:0.41634498596937242] [0:0.40550545377720409] [0:0.46288166435030903] [0:0.46461879661434552] [0:0.42028406899170812] [0:0.40879576583827426] [0:0.46398463332919759] [0:0.41236897642393461] [0:0.41454719201807649] [0:0.46599607433282753] [0:0.41564653575368826] [0:0.38983387535804892] [0:0.46630980401887417] [0:0.39404628910659295] [0:0.48550231055265891] [0:0.47267655885676474] [0:0.45314156620936713] [0:0.42103186832916772] [0:0.42161243501005607] [0:0.42427609474155586] [0:0.44298286483493238] [0:0.43914263454564156] [0:0.40254827828157935] [0:0.41308958369710641] [0:0.40712980615458294] [0:0.43315905565043467] [0:0.42423478925451624] [0:0.46720923525689984] [0:0.42356603930950293] [0:0.47624358354624796] [0:0.44738260682468917] [0:0.40622104952737625] [0:0.44044852033849502] [0:0.4170645473137598] [0:0.46044387199192616] [0:0.46703440817812047] [0:0.41851373273493836] [0:0.39807227868908912] [0:0.42678075490087219] [0:0.42357017000273939] [0:0.44546577049764663] [0:0.4359732255105942] [0:0.43799687345619442] [0:0.43587536361156537] [0:0.43232420912684844] [0:0.42206672240747173] [0:0.45718708125443386] [0:0.44408958661579323] [0:0.42760529971984207] [0:0.42570011477925435] [0:0.40324770287832939] [0:0.39955537235594335] [0:0.44021924470041668] [0:0.48361940123387848] [0:0.46737198152419479] [0:0.40560966941758159] [0:0.36646966270133841] [0:0.42127447989290312] [0:0.31341026897101387] [0:0.49989335295241516] [0:0.49957261458545232] [0:0.49729997387377967] [0:0.59175914561353071] [0:0.43990048177163188] [0:0.33712378117107428] [0:0.35480171105198754] [0:0.35548185914426655] [0:0.1959431233635765] [0:0.33043341544954247] [0:0.33120936504127557] [0:0.12122290045465113] [0:0.13307145110209695] [0:0.44405025053475311] [0:0.37792208467895733] [0:0.21480801426458518] [0:0.21485189586441644] [0:0.30223734409174763] [0:0.16107330953079518] [0:0.16107427240575611] [0:0.31672054618530404] [0:0.25056713129448355] [0:0.21790690037663368] [0:0.22179088653149601] [0:0.24679703278839896] [0:0.69065940999326925] [0:0.4191537115142519] [0:0.20210927934280981] [0:0.20321616333255516] [0:0.43860101166111398] [0:0.44499799108932142] [0:0.47241355165281496] [0:0.50388050734613465] [0:0.51547737807890626] [0:0.47010063829164178] [0:0.57370252032843672] [0:0.38643070252259842] [0:0.38837417723724865] [0:0.38900553869014726] [0:0.67115397456016934] [0:0.6202299894024107] [0:0.43016599726114019] [0:0.53900903705129721] [0:0.38909743279140624] [0:0.55554738877166077] [0:0.43254913989009186] [0:0.46579648279269242] [0:0.31608074455554386] [0:0.29814524091814681] [0:0.41577685693024846] [0:0.27815685177767741] [0:0.24389037124861448] [0:0.56931159973629497] [0:0.47944125629647677] [0:0.69319477669431895] [0:0.70266192036522468] [0:0.44062389181323464] [0:0.37824494486210736] [0:0.68340762761329121] [0:0.66517283887108281] [0:0.44211121438346418] [0:0.57285028522844539] [0:0.53762849284496472] [0:0.68070298997083933] [0:0.50333239137442853] [0:0.48320670355857881] [0:0.43066278760116528] [0:0.30001223836508556] [0:0.30983453632136099] [0:0.29180831241853655] [0:0.71853333559066412] [0:0.34298748723043931] [0:0.45197413794448865] [0:0.48891711033357133] [0:0.57745229056301683] [0:1] [0:0.36975299811450341] [0:0.4757671709209858] [0:0.3812086703380077] [0:0.38524579160050038] [0:0.43945934692236277] [0:0.58315615725643155] [0:0.58640271244466091] [0:0.50754622735714239] [0:0.64442282822225083] [0:0.40084921734184537] [0:0.38217187659691504] [0:0.4060063411593624] [0:0.29750560894223455] [0:0.36874310080373485] [0:0.39349303406308622] [0:0.35358112948922887] [0:0.18450390802959424] [0:0.487180839955971] [0:0.54703004031612901] [0:0.67825444512610766] [0:0.4602976338337697] [0:0.38262302235695955] [0:0.37276331431351989] [0:0.48011046078786535] [0:0.54377602897924437] [0:0.46871712816761613] [0:0.75405533387159984] [0:0.46225450820728287] [0:0.42056642347900192] [0:0.19314975635970957] [0:0.45391120579696603] [0:0.47275808195561025] [0:0.51125912637667537] [0:0.41496061588357491] [0:0.42513501623486971] [0:0.70728846450632055] [0:0.35080977230779903] [0:0.36877414473420689] [0:0.37485621247034467] [0:0.54117061423841317] [0:0.34501870656750827] [0:0.44833762134060801] [0:0.54438355995583076] [0:0.39808437941357244] [0:0.45386664989879622] [0:0.56943367948746015] [0:0.5044380514222937] [0:0.54161891630416847] [0:0.42740382433450014] [0:0.51571866403184285] [0:0.49532553256687895] [0:0.57700209221880805] [0:0.51851097506495047] [0:0.44801588544398607] [0:0.50184133621722682] [0:0.4576960989488994] [0:0.45314343367388676] [0:0.41470221113176736] [0:0.45770967503148174] [0:0.49949427476806546] [0:0.45364330997168517] [0:0.70793190130323402] [0:0.40125224787482983] [0:0.33060175628421518] [0:0.31101270184719448] [0:0.47472469113281829] [0:0.46284109603373697] [0:0.46717106306550626] [0:0.44058128898266663] [0:0.54683446334201424] [0:0.53845750485018118] [0:0.54606390503706426] [0:0.42732320505375609] [0:0.61676263552031629] [0:0.41768757248063404] [0:0.26684838202813421] [0:0.38952323495491947] [0:0.25666377279157221] [0:0.45360637129772896] [0:0.5310101848016775] [0:0.67562076105878688] [0:0.54597025155431578] [0:0.42443919663070157] [0:0.79229050368983822] [0:0.48724014093952378] [0:0.45429654569535971] [0:0.53929323348220948] [0:0.4485176416327592] [0:0.33308306871419446] [0:0.44694951274167821] [0:0.53344594356732167] [0:0.37123124761805815] [0:0.50236203901448984] [0:0.51658522252694716] [0:0.52434600526059327] [0:0.35928936672782208] [0:0.31598939715361285] [0:0.20655131927344625] [0:0.36740930072137695] [0:0.40260455936105727] [0:0.33717216009123607] [0:0.22774178362238892] [0:0.36343120789434735] [0:0.4675382855377615] [0:0.39027090614437293] [0:0.30940362901777901] [0:0.26901185955660478] [0:0.33623247366105252] [0:0.28476911504031122] [0:0.53874189056969657] [0:0.3747059568065359] [0:0.51455631492819542] [0:0.6956022811709841] [0:0.6078594591666413] [0:0.31171855042941016] [0:0.31201974225460666] [0:0.51611491992122849] [0:0.32189077461388288] [0:0.34348611397862899] [0:0.5128115427644484] [0:0.37194828401145397] [0:0.39764733202624536] [0:0.39294229006761566] [0:0.40665167739522501] [0:0.53379230691153201] [0:0.4860863636687302] [0:0.52437525646752858] [0:0.5348896845726413] [0:0.45342972353362954] [0:0.44284241867073232] [0:0.44817919281249669] [0:0.43040465162456037] [0:0.36965916913972718] [0:0.40402730108319984] [0:0.87064221884064641] [0:0.26000910772832009] [0:0.25641794200548212] [0:0.44615365029424991] [0:0.30907559955725966] [0:0.2702031963239353] [0:0.48387345355652839] [0:0.71393051962793985] [0:0.49909024390622198] [0:0.5040059858189746] [0:0.48532965509890064] [0:0.51146310305092402] [0:0.47959253531420604] [0:0.49074975138622179] [0:0.51236636116563894] [0:0.66116879741913948] [0:0.50148068376878796] [0:0.35940738742926687] [0:0.40012581212166148] [0:0.34304323799558928] [0:0.31650001511975173] [0:0.41352741736256254] [0:0.36181929710846744] [0:0.35899624045814355] [0:0.72038204950731255] [0:0.72927457964133058] [0:0.44917786716259028] [0:0.58732118459758553] [0:0.68312670766609429] [0:0.48763063183786998] [0:0.54068737140687917] [0:0.604414147963383] [0:0.72719215039823237] [0:0.71241496827352946] [0:0.58648682090426818] [0:0.57741487136187197] [0:0.51906611535315128] [0:0.45620589108931148] [0:0.47159948506618071] [0:0.33845514101643892] [0:0.56035132759121808] [0:0.44979364108052655] [0:0.39601011451415791] [0:0.33000780918441464] [0:0.40567795062613371] [0:0.37475244661972928] [0:0.67386363263706772] [0:0.37067468115845992] [0:0.35249283487134042] [0:0.5751842679525675] [0:0.78678869080901537] [0:0.43527014617170356] [0:0.67786981293763093] [0:0.45231299151376703] [0:0.29146121839893918] [0:0.50442612443298307] [0:0.62619865263294583] [0:1] [0:0.49739370303444363] [0:0.50455681397865082] [0:1] [0:0.49086127809663277] [0:0.45214249105621979] [0:0.45547217640180016] [0:0.43952681776630692] [0:0.38424404142960705] [0:0.54172157211796335] [0:0.44218180156019515] [0:0.3456573324517298] [0:0.32937864097814401] [0:0.47813583387020242] [0:0.50599136371247611] [0:0.61238027792492522] [0:0.43267783289813189] [0:0.35605821109661517] [0:0.22824361118349426] [0:0.28470225129004961] [0:0.2683937746373391] [0:0.33932325001206354] [0:0.62593381336351506] [0:0.44459526190004323] [0:0.44513297073977498] [0:0.37717457656076991] [0:0.2980255602451567] [0:0.41459949016001713] [0:0.42074203468263333] [0:0.45116010646210825] [0:0.45581845920339381] [0:0.4076970793813422] [0:0.38038228435458032] [0:0.35474474239108261] [0:0.27424515767618518] [0:0.54863318246952542] [0:0.47580006416787896] [0:0.38401710402707118] [0:0.4641903804784821] [0:0.43599426066491376] [0:0.6554623428718297] [0:0.44738547507183507] [0:1] [0:0.38673534008082205] [0:0.38700568122060985] [0:0.46193606561314221] [0:0.23440801760106161] [0:0.23636962417890411] [0:0.15475162811840118] [0:0.47039079006398987] [0:0.45608122284632413] [0:0.44354942244403367] [0:0.54802149140188783] [0:0.32847333819407348] [0:0.30740259217394611] [0:0.57130920149707709] [0:0.35829368555788743] [0:0.32362231794807655] [0:0.44643934254543161] [0:0.52213089501462961] [0:0.40461540072012891] [0:0.55464066110202659] [0:0.47042586775924516] [0:0.40673455328759023] [0:0.51470993639105089] [0:0.49859503368950309] [0:0.56659261100727143] [0:0.44987184323787172] [0:0.40162974107745247] [0:0.15557766765865735] [0:0.13989933676735208] [0:0.53442947042743194] [0:0.38497752593418183] [0:0.36547428126849768] [0:0.36641011376226146] [0:0.48107014105835461] [0:0.52088968630672705] [0:0.51308960259846037] [0:0.35428595562017984] [0:0.35709927845449485] [0:0.49975085660454838] [0:0.31842976074089885] [0:0.31802738622191856] [0:0.57862626895920055] [0:0.39653074719754811] [0:0.49217578911437626] [0:0.3688981807405432] [0:0.27724967158045716] [0:0.55819636733730038] [0:0.42372101943733292] [0:0.3329992113862783] [0:0.2993548472342295] [0:0.35671469029742603] [0:0.30239252177291531] [0:0.40533522530747068] [0:0.42759392487549297] [0:0.35032330210097445] [0:0.39964561357366779] [0:0.42075177212442649] [0:0.44272858911453644] [0:0.35809029328879494] [0:0.39128603791336963] [0:0.41121590789132328] [0:0.45984801911080375] [0:0.36921935802398381] [0:0.3907033660021843] [0:0.41140554962608006] [0:0.47696690270745123] [0:0.43008405622426554] [0:0.35014422554803432] [0:0.46890022606574006] [0:0.52740609932873284] [0:0.46032247564133316] [0:0.33102771105724976] [0:0.28576631256910534] [0:0.14956019854063737] [0:0.12449381158441561] [0:0.38202139041134392] [0:0.35873333892801484] [0:0.35838159694084892] [0:0.36662943652625507] [0:0.30425874580403567] [0:0.23897275270348908] [0:0.52020100873148312] [0:0.48498658711513043] [0:0.3099987147370773] [0:0.31290229316774715] [0:0.82548897226008933] [0:0.45350255770515352] [0:0.48835778301989557] [0:0.4264574760428525] [0:0.45891169153654565] [0:0.31804064428355422] [0:0.31852475197881658] [0:0.40431403279589456] [0:0.49568238245216767] [0:0.48150389342803795] [0:0.34011663651861257] [0:0.34023293760036311] [0:0.47386233252221494] [0:0.48347127679411334] [0:0.61538101506248111] [0:0.48707030197856516] [0:0.38958427802831203] [0:0.54936801512363986] [0:0.68224090427208883] [0:0.69703033449210927] [0:0.5300572577113547] [0:0.69744589371196597] [0:0.97174921433977401] [0:0.4100286141503221] [0:0.47388547607916182] [0:0.34285771934181025] [0:0.39508968055282045] [0:0.39542113997281525] [0:0.51089533728848679] [0:0.45036936467089583] [0:0.42452868168759406] [0:0.30409920151934094] [0:0.37719353052892279] [0:0.33770272853318839] [0:0.3054298253482392] [0:0.56777189852837884] [0:0.51082586852424383] [0:0.52206483018720085] [0:0.4553872649849301] [0:0.44126197388843974] [0:0.59640450233830922] [0:0.4015989093719452] [0:0.5455578068355833] [0:0.5379642657885777] [0:0.42937973123409001] [0:0.27892481553278758] [0:0.2804105686989482] [0:0.51358753972450788] [0:0.5736048095580687] [0:0.32413779431878403] [0:0.27243444704897041] [0:0.37950279169256351] [0:0.62426954674311652] [0:0.53692139297635333] [0:0.48229568576783177] [0:0.44998466966932565] [0:0.48055216742858869] [0:0.36991610855269752] [0:0.30943586893450498] [0:0.25806336920914358] [0:0.53037681933835412] [0:0.39156488433458003] [0:0.25129828365631385] [0:0.25066832727087318] [0:0.2024365391116596] [0:0.57185652417254906] [0:0.45762745615399741] [0:0.29664573511061582] [0:0.23700991984023542] [0:0.42506797921755479] [0:0.44320120631276833] [0:0.51070854068861649] [0:0.6400344721091159] [0:0.46825924909690997] [0:0.47155118552610414] [0:0.51371246144650662] [0:0.56384612748816365] [0:0.35252656451528863] [0:0.30243234347292136] [0:0.51724952626532472] [0:0.31894170864079335] [0:0.49014770951914299] [0:0.8647033175479889] [0:0.6545283115198508] [0:0.44038781036476926] [0:0.33554005549205485] [0:0.64583508573151882] [0:0.50722919930216204] [0:0.49684587437575856] [0:0.51737223697038914] [0:0.47037981422246616] [0:0.56887836362356115] [0:0.47173019939521749] [0:0.47262793541449605] [0:0.47669438727313063] [0:0.45505230896941312] [0:0.54223349778345364] [0:0.42548566063009191] [0:0.50497558397331743] [0:0.36944302476907898] [0:0.29157234468765275] [0:0.29338102330686483] [0:0.29338102330686483] [0:0.16528284150747177] [0:0.16634058132633128] [0:0.16634549736976903] [0:0.47089528855522494] [0:0.42657065899206498] [0:0.40751815455559781] [0:1] [0:0.40617474807677167] [0:0.39154119745894028] [0:0.41389694712729336] [0:0.39485720864549678] [0:0.4439661813812375] [0:0.41599554440940029] [0:0.4248317161177263] [0:0.43128292780377925] [0:0.48504544949364936] [0:0.275209424137142] [0:0.27524098257251584] [0:0.59364488553840744] [0:0.42440708005894018] [0:0.3625628479448928] [0:0.36356661990357625] [0:0.48438358819058619] [0:0.49175509966330722] [0:0.49250291785996131] [0:0.5443724968384035] [0:0.58375991570848562] [0:0.35798898179033101] [0:0.39505897413651803] [0:0.29320738746865904] [0:0.25973721449112963] [0:0.22183775233410491] [0:0.43758426423935431] [0:0.40577574729529819] [0:0.40628852505071111] [0:0.41841252427409592] [0:0.4198365498539639] [0:0.4860642684186382] [0:0.53663204995909219] [0:0.46419426475224718] [0:0.4269818658586651] [0:0.3233651743004809] [0:0.45893738579688798] [0:0.44290597764356704] [0:0.49411793120541214] [0:0.55213750488796531] [0:0.54992165080164079] [0:0.54047256136281818] [0:0.40787695389527351] [0:0.43168098539494593] [0:0.32858178574029789] [0:0.32173143932309195] [0:0.45960225048035663] [0:0.3295790973031299] [0:0.25923516916983019] [0:0.61666162535711067] [0:0.50834679754686996] [0:0.47237009179886064] [0:0.41316962879077018] [0:0.31939627467336701] [0:0.46356478993696981] [0:0.35179615412971948] [0:0.46180502252590261] [0:0.32096348731362717] [0:0.37253986801854022] [0:0.54979952912234931] [0:0.56977576751954084] [0:0.37420679365263365] [0:0.33879976275281759] [0:0.30031137525514578] [0:0.58746301622210439] [0:0.4545951219393195] [0:0.42573238625009469] [0:0.56533663883097984] [0:0.517063240952644] [0:0.62302055194738404] [0:0.49464982944753849] [0:0.34981934252110436] [0:0.27243444704897041] [0:0.61608681763959849] [0:0.62507346043969725] [0:0.5708428522278931] [0:0.45813807110849819] [0:0.38179497268696838] [0:0.22980163612744509] [0:0.5845397283303011] [0:0.40399268301042168] [0:0.68422115393267446] [0:0.56578051095301651] [0:0.51350280381449931] [0:0.50561612836736003] [0:0.47835775145468756] [0:0.47768154745743235] [0:0.61917114103763149] [0:0.47511342854708177] [0:0.46265430797855739] [0:0.59398216629926182] [0:0.39364177309630066] [0:0.21553723922036594] [0:0.17289696322588644] [0:0.47446273510680043] [0:0.51778667873801953] [0:0.4827959037839476] [0:0.55162291414152009] [0:0.31246833843706001] [0:0.2290689151540915] [0:0.47590510780691631] [0:0.51622595992079179] [0:0.63204557639527881] [0:0.55226026966788444] [0:0.4271446348148536] [0:0.4441400808751671] [0:0.56269579656485336] [0:0.51921538656496857] [0:0.74712310375531832] [0:0.45752780069815591] [0:0.34777847522865124] [0:0.16848569979627623] [0:0.1096592897112542] [0:0.42194967106347664] [0:0.30609126186659585] [0:0.3383864502948854] [0:0.38821090794960211] [0:0.34668443438559376] [0:0.37612910205480016] [0:0.38918696089774946] [0:0.35545623466660647] [0:0.39547557421811469] [0:0.26753061527442989] [0:0.26770413403711424] [0:0.57825504393897209] [0:0.53945581325369307] [0:0.38167434422056429] [0:0.41011570106942935] [0:0.40027786190859055] [0:0.3364584410323111] [0:0.34067855525837881] [0:0.40872211716494561] [0:0.40529337867777621] [0:0.44447084747649984] [0:0.76525374630365783] [0:0.52814574467061581] [0:0.5098665303412544] [0:0.37635242153391441] [0:0.39281920312167329] [0:0.41713441215482999] [0:0.59837114852319595] [0:0.81171445650982965] [0:0.52093079629029437] [0:0.35500793727846297] [0:0.37141344269258536] [0:0.36532420239074709] [0:0.36086398889382343] [0:0.31847499117674843] [0:0.35786309040763031] [0:0.52413630292752589] [0:0.38393412916277764] [0:0.46780446365573536] [0:0.31227466770735807] [0:0.26448686518753373] [0:0.43625615580253896] [0:0.45020815871383496] [0:0.42286340918394172] [0:0.38246691352405227] [0:0.38755878715723002] [0:0.37657143836958862] [0:0.40396549099666845] [0:0.4826967407795506] [0:0.48067169261262266] [0:0.41552864306397808] [0:0.39198982669479693] [0:0.23972778713285822] [0:0.54416656932057916] [0:0.4882591525864719] [0:0.51782591739672956] [0:0.38640019191556074] [0:0.39396483405109917] [0:0.33548155812978153] [0:0.52598973483555844] [0:0.51651256856157146] [0:0.4423546012905098] [0:0.53110487078321] [0:0.48146188955844044] [0:0.41787552740944983] [0:0.4152572633280196] [0:0.34891126919556309] [0:0.37565866725974945] [0:0.41967610961983781] [0:0.39092629165478721] [0:0.35732776108968223] [0:0.58145287555300573] [0:0.6225089587991478] [0:0.46796754664100165] [0:0.55995672702410249] [0:0.57970513755884112] [0:0.4425637798362414] [0:0.48624914562696381] [0:1] [0:0.43138640009088552] [0:0.36014176335795989] [0:0.42096087107263491] [0:0.3967705391724663] [0:0.37799015592314245] [0:0.30017172614009019] [0:0.18735029704545533] [0:0.18130211995929521] [0:0.11235789671704731] [0:0.4316044964617306] [0:0.44963762219693854] [0:0.36846817831673251] [0:1] [0:0.30513704649521078] [0:0.24875164816143142] [0:0.36980311601079413] [0:0.22532114365292238] [0:0.513364469001796] [0:0.46622011933834728] [0:0.49356100507033612] [0:0.97254071587860791] [0:0.51333415626407519] [0:0.34000320939988327] [0:0.25596281621685951] [0:0.40798681022715871] [0:0.31032852093866398] [0:0.21465802531980663] [0:0.55414782363112258] [0:0.60087595923805193] [0:0.38500770437223908] [0:0.31677400217525886] [0:0.27067204169437942] [0:1] [0:0.57477518529489602] [0:0.48254752915714277] [0:0.41810925803930288] [0:0.43638783710567397] [0:0.42844151514860562] [0:0.50175088352240182] [0:0.46266279195423959] [0:0.43104786468846767] [0:0.47774302202532082] [0:0.50950043601387285] [0:0.45878249809957106] [0:0.56362357094415438] [0:0.49304076975289352] [0:0.46586404039767071] [0:0.37286032697642801] [0:0.37351795383518327] [0:0.49570887147375481] [0:0.40308264361374696] [0:0.47254229355093302] [0:0.64699781995305983] [0:0.46811992881235959] [0:0.67293623632340116] [0:0.51007924905627122] [0:0.52915970635262577] [0:0.53577606367122776] [0:1] [0:0.32190482486122829] [0:0.20615710488582051] [0:0.19981168817216907] [0:0.51855672426048705] [0:0.33489131853600745] [0:0.30222856615808824] [0:0.6686706265654252] [0:0.47798901718938708] [0:0.53345388542348304] [0:0.53040791867193848] [0:0.39442993065701587] [0:0.50511010474469165] [0:0.53726430002996295] [0:0.29984414257848607] [0:0.60582973762866044] [0:0.37247719449636962] [0:0.57531276969344447] [0:0.51982699478909089] [0:0.29064222306442328] [0:0.52041580471541515] [0:0.45987148649520021] [0:0.40642970523252703] [0:0.40829366754691543] [0:0.29754141767793624] [0:0.4753457398693986] [0:0.38036438708063469] [0:0.32714574891938586] [0:0.60786933856272052] [0:0.55390331165689344] [0:0.53218007050300076] [0:0.66551099102939237] [0:0.32896822353651972] [0:0.28306573901401982] [0:0.59183815861939904] [0:0.29641010739997192] [0:0.60039381749092635] [0:0.41616246025183312] [0:0.63109968297602159] [0:0.52954824866547134] [0:0.59442914171522121] [0:0.34189001205364389] [0:0.34891897768285374] [0:0.53820655224799274] [0:0.42226232874060382] [0:0.27122917555431619] [0:0.22825264359028499] [0:0.48350048338427037] [0:0.48857785769891238] [0:0.50196728630474075] [0:0.50797706512338769] [0:0.65499441757870036] [0:0.23636522776229366] [0:0.15475162811840118] [0:0.53019199186966159] [0:0.52421667564212637] [0:0.51366941049166748] [0:0.54088654991867213] [0:0.55150544932091172] [0:0.38635042779718137] [0:0.51008111096314446] [0:0.61286870042806108] [0:0.43611905141913787] [0:0.53438246402807876] [0:0.44488123158483195] [0:0.53710437570609681] [0:0.51289059398967218] [0:0.67345293738879819] [0:0.47966880384163108] [0:0.39845096686296816] [0:0.38622048552607163] [0:0.54897328026191095] [0:0.62203215489771146] [0:0.44032517681024097] [0:0.45266777022726223] [0:0.49029465363577251] [0:0.41659773707348208] [0:0.3224950353458268] [0:0.34582378019342325] [0:0.60410651255930825] [0:0.40404532116702219] [0:0.47407541659918057] [0:0.69811542621272182] [0:0.42539155920267491] [0:0.47569901402046555] [0:0.36171664485545707] [0:0.59818764183800666] [0:0.44431094836060842] [0:0.47307795156138199] [0:0.35956672983771204] [0:0.21363447200408534] [0:0.17611396302644916] [0:0.12940407733041509] [0:0.33665287751851358] [0:0.32081127000183385] [0:0.36156744015072922] [0:0.273926028664843] [0:0.26697302903416775] [0:0.22053938542320919] [0:0.22054959322768561] [0:0.33144616686967315] [0:0.24472284858750559] [0:0.47923336847563297] [0:0.49397583743900941] [0:0.49979483380303519] [0:0.72062068709273541] [0:0.49776879927280615] [0:0.43414011938489677] [0:0.39366303307865197] [0:0.39787654532635564] [0:0.39056058295602936] [0:0.29491603475682271] [0:0.40142236304857415] [0:0.4087744563068616] [0:0.50663298152402092] [0:0.46516985652488169] [0:0.45199815167081758] [0:0.41325733705173029] [0:0.37793976982089583] [0:0.36553166641138612] [0:0.45298165590518463] [0:0.50462194910672975] [0:0.5775890766214723] [0:0.56366225591649577] [0:1] [0:0.36337434044133182] [0:0.30645550340116207] [0:0.15558188042900434] [0:0.52571896462892009] [0:0.50664234805137431] [0:0.38393593774746732] [0:0.73486171275148415] [0:0.54809715520906666] [0:0.44622827894463535] [0:0.57991474626362494] [0:0.51369025847788019] [0:0.45163810649949021] [0:0.42574337217801916] [0:0.30428298774994122] [0:0.37768610632132932] [0:0.3378487085771843] [0:0.3056532906709199] [0:0.43212776163011191] [0:0.49742362202227963] [0:0.38090474611943292] [0:0.51631841689692848] [0:0.52567049729584259] [0:0.55337537889757848] [0:0.47122038487423573] [0:0.38250986526522407] [0:0.44664224734015101] [0:0.32941288080450415] [0:0.50270931862920853] [0:0.33741114455695648] [0:0.30458301690584083] [0:0.18738388550371055] [0:0.18130375652272102] [0:0.53535753682814291] [0:0.52154063703866516] [0:0.56025306006236342] [0:0.40916020106279521] [0:0.49760655429018297] [0:0.53246683588511279] [0:0.63168002844462889] [0:0.63199316809281469] [0:0.27438748494425902] [0:0.32479795208624535] [0:0.18347041829998856] [0:0.60863755492393334] [0:0.54953371234331394] [0:0.51699106077109036] [0:0.6088070759241041] [0:0.54748254228861803] [0:0.4951156536488599] [0:0.61012974047851853] [0:0.51076849693864823] [0:0.38385305833340416] [0:0.50452852484172994] [0:0.35260639093790708] [0:0.30097820356836852] [0:0.54151460058464584] [0:0.53973214105379486] [0:0.36174551124412391] [0:0.68376064000202341] [0:0.42403354464169041] [0:0.40233345264539427] [0:0.41003568603134732] [0:0.47411037382152094] [0:0.48760348892102012] [0:0.43095106719888049] [0:0.37003658307638593] [0:0.38949240929309553] [0:0.39319333596193456] [0:0.42002795161559098] [0:0.45303741513878826] [0:0.41976926861210367] [0:0.36472247783398648] [0:0.33297644564911583] [0:0.47577874355802169] [0:0.48897062744834102] [0:0.39840749377333912] [0:0.35526540629016767] [0:0.40979075012920196] [0:0.3443078110337614] [0:0.44456236108800856] [0:0.33327999410654402] [0:0.38814120657013085] [0:0.5743999872018124] [0:0.49244518645045343] [0:0.51774878573985728] [0:0.59252495692643603] [0:0.44331349532612735] [0:0.5744807912432498] [0:0.33514010165679736] [0:0.33622571787220018] [0:0.59572921414674984] [0:0.42633086005239029] [0:0.39181349295113449] [0:0.30679292849867112] [0:0.463291740824953] [0:0.38066984847301871] [0:0.3487548070433712] [0:0.28275444249311255] [0:0.24280505500529292] [0:0.17258544433161624] [0:0.33054869759607874] [0:0.35180271187205553] [0:0.36466875956253314] [0:0.31018279633577778] [0:0.48110969041710339] [0:0.38820615342071912] [0:0.22472750897504049] [0:0.65614978657263756] [0:0.62130644729754292] [0:0.35405616913117444] [0:0.30278948497463409] [0:0.49729970007961261] [0:0.51353444089310107] [0:0.71459680114333146] [0:0.56503669723747896] [0:0.43415576957808649] [0:0.84170722191605318] [0:0.48889502363244736] [0:0.49451495723331068] [0:0.64335034536563973] [0:0.66223492963481079] [0:0.38051730469920592] [0:0.68643395632733273] [0:0.43624067968748814] [0:0.44757476658625855] [0:0.4657170111226015] [0:0.38888764627868588] [0:0.38509531267092817] [0:0.41027915855609898] [0:0.35697472064820346] [0:0.21382659129934287] [0:0.42317474179998177] [0:0.49981610703206059] [0:0.52835227670710827] [0:0.55922936327032591] [0:0.55503386793663656] [0:0.58208835642608281] [0:1] [0:0.36884670851843199] [0:0.48611735315459431] [0:0.45841073764408441] [0:0.4991386690863166] [0:0.35843883945394306] [0:0.472290034257283] [0:0.52386106840048641] [0:0.39024822337081982] [0:0.51473203669699596] [0:0.52479113622143259] [0:0.52958109454283775] [0:1] [0:0.5735431021092281] [0:0.43222961228083068] [0:0.55189728314120867] [0:0.47701518071346433] [0:0.42342726036837858] [0:0.60809989698554456] [0:0.53595032255362651] [0:0.29435442868593875] [0:0.5540801853170263] [0:0.52628620128653869] [0:0.38098900634231209] [0:0.18325239257302714] [0:0.18329587735382322] [0:0.53007217324993461] [0:0.46110599362765908] [0:0.47339976785876214] [0:0.48078625360281219] [0:0.6499011451727611] [0:0.33456356343795224] [0:0.25951366955331556] [0:0.13319835943311176] [0:0.13322223604808914] [0:0.53450993124868607] [0:0.44307140308251453] [0:0.40512200757498834] [0:0.40660445085236324] [0:0.4677384729668923] [0:0.56024045409329737] [0:0.59115466791142846] [0:0.69424080148984946] [0:0.50615703641102738] [0:0.39084078004552952] [0:0.40741050690330105] [0:0.31265746404231076] [0:0.29648155248650515] [0:0.25179738375378224] [0:0.53216970113808026] [0:0.44390987160095929] [0:0.2963287697117003] [0:0.16089622578881335] [0:0.16101780272799421] [0:0.40480345757986264] [0:0.4654599410235582] [0:0.40374499558299853] [0:0.40980607833330457] [0:0.39299034561700913] [0:0.31183159577963826] [0:0.43237115150723632] [0:0.49538892696820835] [0:0.43906214407945943] [0:0.58269358196011178] [0:0.39089373215152184] [0:0.65064580427612029] [0:0.48099821465794862] [0:0.41384968433959812] [0:0.30196674579936461] [0:0.42907194747006533] [0:0.31938667402848359] [0:0.43302373588427151] [0:0.64581048534307828] [0:0.45686624232149664] [0:0.58520416754898064] [0:0.46795546058978149] [0:0.64763833562473805] [0:0.52288653477652025] [0:0.49751274452293698] [0:0.45471003461913817] [0:0.4670062411222668] [0:0.46120963075134819] [0:0.50466923718269674] [0:0.41588575288098195] [0:0.35586543104345914] [0:0.49484008166168675] [0:0.44423645623347674] [0:0.41626933109717346] [0:0.40413607795811324] [0:0.5465827853375218] [0:0.47484186166797365] [0:0.49329411169051812] [0:0.39090396506147951] [0:0.59137817391669301] [0:0.46999689593931754] [0:0.4846351221826784] [0:0.36288784957274911] [0:0.30336366772319717] [0:0.44825135222381379] [0:0.4541296982672659] [0:0.45336518295026396] [0:0.55815335962839807] [0:0.47462717648602792] [0:0.3737665806967661] [0:0.59481255686661327] [0:0.45212785253356641] [0:0.4178225734485273] [0:0.43011846963365363] [0:0.33639834818529329] [0:0.22831355742524664] [0:0.50196538405823599] [0:0.39279327261501479] [0:0.66732377742756166] [0:0.61768482120827006] [0:0.52647277741752996] [0:0.36502777542837728] [0:0.43461890765073846] [0:0.46699514618894872] [0:0.43626289458406398] [0:0.43990154069114068] [0:0.43328069480529335] [0:0.18449301188066899] [0:0.16277870726181407] [0:0.5548406716442309] [0:0.63032690391214852] [0:0.56694178646957871] [0:0.460394246259483] [0:0.44737837590874074] [0:0.41857935198114249] [0:0.41509255424775482] [0:0.47001877583361584] [0:0.48385601792988364] [0:0.34885135373339082] [0:0.27140579737253617] [0:0.3694367731763844] [0:0.30062666110841368] [0:0.28681920028956503] [0:0.45096782768604143] [0:0.38824666869258218] [0:0.38841323471280648] [0:0.50358253341733927] [0:0.51405449517718504] [0:0.4038056345525653] [0:0.42516962216025045] [0:0.30388563519809286] [0:0.25128235412636513] [0:0.34843475697144599] [0:0.30191061528061403] [0:0.2966428702344634] [0:0.39734307213684172] [0:0.41813222785855558] [0:0.3753943854373305] [0:0.44066403974326684] [0:0.35576263763518229] [0:0.41133450030090024] [0:0.40888166705773016] [0:0.45654834781066161] [0:0.41803583074433931] [0:0.30468756859593166] [0:0.27856569229433964] [0:1] [0:0.38811444109693211] [0:0.57365326854379017] [0:0.47504014998228333] [0:0.36761606360100246] [0:0.42876166838654306] [0:0.34888983510877375] [0:0.36323815404783255] [0:0.37620216329693101] [0:0.28007674748490197] [0:0.4653180452332446] [0:0.52343647292078577] [0:0.4582323462318113] [0:0.31718142870663107] [0:0.32922738965778936] [0:0.32390120442641862] [0:0.28434657345952707] [0:0.3157757448483815] [0:0.21191662673390838] [0:0.24943294379052502] [0:0.25100756580585853] [0:0.14649629699657843] [0:0.59650737488917693] [0:0.52394809398101294] [0:0.66363473835406128] [0:0.33280461515256599] [0:0.27888159604307233] [0:0.49758173524260602] [0:0.44110455790773667] [0:0.48591260968089695] [0:0.43214561042419902] [0:0.45679473953473299] [0:0.44168249670733001] [0:0.4175819441762445] [0:0.47957458557733978] [0:0.50349835640455398] [0:0.45180044271820463] [0:0.46789819402971555] [0:0.46874509322174485] [0:0.5834022099831575] [0:0.43467187140246838] [0:0.44089386845414746] [0:0.67056487567496559] [0:0.50016510654046309] [0:0.43413861064911718] [0:0.4046963426598153] [0:0.51511169924342304] [0:0.37787371692571231] [0:0.54295829291639119] [0:0.66725738166849036] [0:0.4179424768537171] [0:0.41038781147606329] [0:0.58692213049881414] [0:0.48108031465291978] [0:0.40246740220071658] [0:0.18235534142636009] [0:0.22011997720877147] [0:0.61370299521681271] [0:0.60934667767539763] [0:0.42687791894668903] [0:0.42723273897685232] [0:1] [0:0.26580588309579012] [0:0.81792005617539676] [0:0.56319522717240356] [0:0.45685938168091661] [0:0.36178874063409311] [0:0.3080423650670388] [0:0.52552106947938149] [0:0.49622377451987365] [0:0.42310365826499907] [0:0.38623037035637464] [0:0.3822257606477944] [0:0.46224916787666154] [0:0.42056642347900192] [0:0.19314975635970957] [0:0.41726859176161796] [0:0.4582784644647328] [0:0.13320432617019454] [0:0.13322820923250395] [0:0.39910142701433587] [0:0.27141309816728182] [0:0.20326813198492164] [0:0.60801364136272584] [0:0.4474789217901472] [0:0.38823653341668646] [0:0.33682065569264796] [0:0.49528974410452214] [0:0.50828378367356941] [0:0.40585619647358878] [0:0.44515089445290584] [0:0.49556247758395178] [0:0.50858651080414385] [0:0.51588581362588626] [0:0.49713445361943975] [0:0.39946923392811318] [0:0.31252476641354932] [0:0.69571242701466685] [0:0.35553583691122104] [0:0.30546651405183745] [0:0.25653838141301027] [0:0.40211635915321747] [0:0.2912528470310064] [0:0.29688261991815335] [0:0.30382703500040342] [0:0.17244671259707181] [0:0.12117916368584733] [0:0.12120874211397049] [0:0.49011005019295673] [0:0.56434584879750738] [0:0.42918889304137758] [0:0.45678303603509107] [0:0.47482536700790706] [0:0.55864930367716858] [0:0.4497570600438342] [0:0.52166560339640122] [0:0.40183427519258136] [0:0.32659832600604338] [0:0.44721831510639887] [0:0.35865189487633331] [0:0.49171319795381263] [0:0.57316400004680135] [0:0.48623141034297823] [0:0.37240192612742651] [0:0.56385230803405784] [0:0.45138608810584774] [0:0.47084970828603234] [0:0.44514716443590802] [0:0.3929834067226573] [0:0.2399850035404317] [0:0.4659627436130328] [0:0.50338322882630815] [0:0.47403216326516312] [0:0.48784019550835866] [0:0.43340298747480721] [0:0.46500646925582284] [0:0.4080415645296237] [0:0.41450811905865798] [0:0.50189233831697799] [0:0.42343044483570347] [0:0.46556540776045502] [0:0.43918965143404731] [0:0.24216016703069598] [0:0.12470953585167427] [0:0.48897825763268477] [0:0.43188505635114705] [0:0.3829492226096653] [0:0.55448630484011185] [0:0.44368247338510663] [0:0.39475960149823541] [0:0.35223092177939758] [0:0.36633789140084527] [0:0.52837809571075056] [0:0.42135763865228276] [0:0.37580096888615827] [0:0.37766512379646722] [0:0.62230702618776612] [0:0.38969155598532079] [0:0.35526540629016767] [0:0.33021986640292739] [0:0.5887481492715444] [0:0.44816193044917485] [0:0.35044928772485356] [0:0.34266100752141432] [0:0.5732935400203566] [0:0.48737092080498107] [0:0.54752381681031714] [0:0.46400836304707038] [0:0.41123274770735424] [0:0.38456721442232938] [0:0.62995367494158716] [0:0.67821697349148891] [0:0.48131093777114148] [0:0.57854222710684744] [0:0.39321502555481486] [0:0.51447309659286711] [0:0.45729389513763735] [0:0.54236800972420218] [0:0.51987202688452416] [0:0.42025070739732517] [0:0.40679856752481175] [0:0.39066241557721637] [0:0.32562250334168052] [0:0.32683554807521231] [0:0.42282514793874282] [0:0.66530980757417091] [0:0.46319509262212161] [0:0.59255664615031078] [0:0.46128600363625216] [0:0.4993527820453515] [0:0.45394556210599907] [0:0.39938320039104741] [0:0.39523361623626468] [0:0.49455783793619118] [0:0.53504752295645974] [0:0.52038997541244536] [0:0.42489372019970895] [0:0.16832064172936603] [0:0.10965826758254112] [0:0.1096592897112542] [0:0.43605748742471567] [0:0.46611576949371314] [0:0.42118564610582754] [0:0.43195966794785429] [0:0.38118405043076492] [0:0.40699049460945791] [0:0.43157320715456254] [0:0.30720576050446596] [0:0.34794056630620873] [0:0.31518362775166503] [0:0.23852185867578524] [0:0.33478992080736675] [0:0.62536218546674283] [0:0.44329231702714944] [0:0.52688077290557112] [0:0.38734881560792311] [0:0.36436999572133627] [0:0.28063694945641537] [0:0.47786018716794904] [0:0.50397467493644954] [0:0.51531105392012999] [0:0.52119566757205471] [0:0.71993385307803481] [0:0.53440646951589355] [0:0.42195470475823083] [0:0.31791415655869942] [0:0.26255649102409451] [0:0.68012446465665988] [0:0.47941648986356317] [0:0.46629204654123235] [0:0.45719141491707854] [0:0.58803744227137433] [0:0.50382094777198383] [0:0.43437905282355493] [0:0.47776659599715104] [0:0.36721210561084394] [0:0.43802726809746695] [0:0.34454451178805123] [0:0.15103545877376734] [0:0.58383439564238437] [0:0.55279971741198553] [0:0.45547034907079348] [0:0.3036071834364788] [0:0.27723085259448244] [0:0.74118327129472417] [0:0.58867525134097987] [0:0.39299673133023233] [0:0.52361259254805514] [0:0.62743417280228764] [0:0.42985258075771804] [0:0.32047174405830398] [0:0.29836787102306317] [0:0.4169473827151825] [0:0.41981350629524872] [0:0.26320539743240517] [0:0.46169043144654626] [0:0.46290590801560438] [0:0.46444747556207844] [0:0.3261181524102077] [0:0.22831355742524664] [0:0.55822104930641014] [0:0.48218824802506338] [0:0.38269326096577128] [0:0.38399633460773541] [0:0.52544092945495524] [0:0.6012742054679695] [0:0.67597433221456427] [0:0.45721448823554689] [0:0.6296213477763084] [0:0.57894958665029306] [0:0.46026188413101199] [0:0.35165720168969622] [0:0.7433015899038764] [0:0.44122443911587739] [0:0.47484890090736004] [0:0.34254498297643965] [0:0.56243428195700451] [0:0.55439953276955578] [0:0.4185007748022852] [0:0.33274438202191248] [0:0.3489414376218003] [0:0.30978483215118013] [0:0.30070398590388786] [0:0.34816600293791083] [0:0.31954655746405963] [0:0.30227544962308439] [0:0.40519833217328605] [0:0.42749801101305113] [0:0.30482633475596432] [0:0.35023587801703404] [0:0.30250427597577351] [0:0.39954365527288849] [0:0.42064547881789593] [0:0.37684368735018769] [0:0.44260761888059602] [0:0.35795917706074309] [0:0.39113186438941255] [0:0.41105213396835411] [0:0.45965186876264141] [0:0.36913519002486206] [0:0.30585182457350552] [0:0.39054703851009542] [0:0.41133973552508207] [0:0.47667167576433866] [0:0.36885372384191795] [0:0.42997730026299541] [0:0.35003295530467482] [0:0.36485493923559104] [0:0.37650363726322728] [0:0.28054904199622066] [0:0.46858431390107774] [0:0.52729611630549111] [0:0.46022440288923017] [0:0.31779921308891362] [0:0.33096708644631434] [0:0.3250141607441609] [0:0.28571784496725577] [0:0.31591922383922583] [0:0.25487191307663776] [0:0.15629365487410399] [0:0.12194416856405646] [0:0.5549615372698441] [0:0.42265355262544868] [0:0.47019901618961707] [0:0.46933660888973222] [0:0.6959068863923894] [0:0.76213459909501846] [0:0.39193932747715066] [0:0.35793775702076391] [0:0.24053690465658717] [0:0.43445425627544343] [0:0.48207799467049472] [0:0.38213530617302427] [0:0.38791308725104368] [0:0.36698361744192848] [0:0.24693756699031341] [0:0.17258544433161624] [0:0.12120230910206158] [0:0.50422848620877325] [0:0.38684174200699978] [0:0.50231207442277315] [0:0.53668893116710659] [0:0.32726633765258928] [0:0.23548999670382262] [0:0.4816352331094948] [0:0.694669277778723] [0:0.43896819651471852] [0:0.39345325053207042] [0:0.32734626973286435] [0:0.32853206136663232] [0:0.44646436655128224] [0:0.54424034409175848] [0:0.41540553901319344] [0:0.37785276755643032] [0:0.33677706978333372] [0:0.42215668004062407] [0:0.38023492539532622] [0:0.23837394293755107] [0:0.39635522771944987] [0:0.28458224092964618] [0:0.74638804975634221] [0:0.47548878161718694] [0:0.41637267245189052] [0:0.53638832317469132] [0:0.48477894673317801] [0:0.28285205213392861] [0:0.28295521689462805] [0:0.55290630447593248] [0:0.37668602018900377] [0:0.32637283083618895] [0:0.50930667904360338] [0:0.37865252706507152] [0:0.60541016025023742] [0:0.59987634706552517] [0:0.48274020412213658] [0:0.66679987420753783] [0:0.44812627680803913] [0:0.44968610353266231] [0:0.5323599350077397] [0:0.42939339374261737] [0:0.40578400408815885] [0:0.38668330625707759] [0:0.31984435806203476] [0:0.36679912620061239] [0:0.36992600339420662] [0:0.25210290007082187] [0:0.50920965542996544] [0:0.64267183101585679] [0:0.44251333692554706] [0:0.51223327269463448] [0:0.48335468457937242] [0:0.46241294459082594] [0:0.57108136493891359] [0:0.49861304216056451] [0:0.41423827097449889] [0:0.37732037047870332] [0:0.32432790442869375] [0:0.51440022270799268] [0:0.4548624884691928] [0:0.41150136942931309] [0:0.36712981887886825] [0:0.47388952551073826] [0:0.34729030051795534] [0:0.56757505673146758] [0:0.42584958192204764] [0:0.33304523282990922] [0:0.29986222848255695] [0:0.45912803593970108] [0:0.4066236612141168] [0:0.33616643808443802] [0:0.65283980734508418] [0:0.3722027231227179] [0:0.38090916337369474] [0:0.29499744573965542] [0:0.49680002054031719] [0:0.43438098205510878] [0:0.43965550080124394] [0:0.62404540910844652] [0:0.50415501921546912] [0:0.40558714282160263] [0:0.41850754971231785] [0:0.41495833802425369] [0:0.49444362802077346] [0:0.3975191759286914] [0:0.39895636137955676] [0:0.44863469264894418] [0:0.44730221085279687] [0:0.56079933500886425] [0:0.55262099377455975] [0:0.36473745678378661] [0:0.39678130480253165] [0:0.4348605914316091] [0:0.39661447694002527] [0:0.47116917945850234] [0:0.328517310315246] [0:0.5469965494976472] [0:0.46278759119516261] [0:0.17898011134743849] [0:0.33516103576352535] [0:0.25540252156236115] [0:0.6579638020761035] [0:0.51769080867585426] [0:0.41255053403919267] [0:0.43408946047366148] [0:0.38038657348003252] [0:1] [0:0.54452892868251468] [0:0.57927338101641346] [0:0.45583554062220344] [0:0.43113036666401283] [0:0.44371909754623939] [0:0.45258690418693143] [0:0.45728283081250987] [0:0.6354207920802919] [0:0.33144435526236338] [0:0.33153134959074859] [0:0.44596635068126461] [0:0.38006315121377365] [0:0.39632587095438743] [0:0.44274412652269074] [0:0.22300955008514509] [0:0.42056642347900192] [0:0.19314975635970957] [0:0.17779996033707846] [0:0.17791899811835082] [0:0.12941893234169208] [0:0.41644093309069252] [0:0.36614564843570696] [0:0.51127668788863045] [0:0.38844215296287998] [0:0.30104056497734127] [0:0.34797608958472631] [0:0.45084207897953932] [0:0.33171615268909554] [0:0.32406271144221876] [0:0.62769549006473047] [0:0.54238625267215568] [0:0.45469725171535402] [0:0.40121258400979326] [0:0.4537122811976545] [0:0.52734942787379846] [0:0.31114289101785586] [0:0.30966832609216866] [0:0.46564467976387053] [0:0.33000994653590993] [0:0.32745455771917381] [0:0.4796407831123437] [0:0.42696002236156005] [0:0.27626272796712292] [0:0.26771925433457561] [0:0.60433233521144791] [0:0.36017112912178539] [0:0.72027709315403032] [0:0.4580655483926076] [0:0.36687917846132451] [0:0.36218887269805383] [0:0.38341356275268651] [0:0.47325176652512346] [0:0.25790234642285415] [0:0.21363528798549278] [0:0.17611396302644916] [0:0.50547497055033053] [0:0.46767544234649611] [0:0.38487607853200578] [0:0.38771791828992208] [0:0.23544500285439801] [0:0.13322820923250395] [0:0.13322820923250395] [0:0.46597697111807568] [0:0.45006051486607707] [0:0.32449860873527303] [0:0.44872530070747219] [0:0.48916511359744647] [0:0.2807017403791004] [0:0.40255659256821436] [0:0.56377089189267493] [0:0.58420971449808712] [0:0.43174483929297386] [0:0.37682900022121435] [0:0.23023957407029036] [0:0.45734089042178921] [0:0.3735880914777156] [0:0.33905929938367912] [0:0.38884110112357068] [0:0.41295503217560486] [0:0.36257481611035364] [0:0.30719292382933222] [0:0.28893586182753056] [0:0.53291450898018766] [0:0.64898466641559693] [0:0.52437304544941832] [0:0.43507124335923608] [0:0.34898316688619785] [0:0.2454382999165142] [0:0.35282238590502096] [0:0.52450279079049822] [0:0.36064463870008256] [0:0.37799108362511541] [0:0.71073138055350238] [0:0.35373907795445653] [0:0.28836595124614406] [0:0.40413829766246001] [0:0.5241459081759664] [0:0.24480182032393785] [0:0.24481409418111053] [0:0.24483644120864773] [0:0.3659579985701259] [0:0.25126750093101508] [0:0.25127921319023855] [0:0.73773023950687189] [0:0.59754488532153538] [0:0.60551002698042489] [0:0.45707204758209635] [0:0.46778693731012949] [0:0.47326064174977689] [0:0.46301456469563851] [0:0.53014995981827318] [0:0.45334524273872467] [0:0.36763202240997878] [0:0.26596713161732793] [0:0.22923120695559834] [0:0.52804671739552123] [0:0.45541115487135397] [0:0.54960261674408861] [0:0.49567492346584247] [0:0.46506355575538011] [0:0.43285963760598967] [0:0.43600174799310071] [0:0.46801311087077391] [0:0.50527885529026761] [0:0.50974075477195158] [0:0.46742137604714562] [0:0.39001983357484304] [0:0.48222075802557779] [0:0.45321314342249508] [0:0.44006841854334905] [0:0.44672923325318104] [0:0.27596621684536515] [0:0.50217486153795365] [0:0.60618861437167282] [0:0.46892281601569374] [0:0.37308282171687879] [0:0.61722245261739739] [0:0.40669685246187232] [0:0.41122528366485178] [0:0.54439192452177543] [0:0.44635429175890828] [0:0.48606391697342516] [0:0.43435682602738312] [0:0.44125131081557817] [0:0.30115925290626255] [0:0.49060675695217337] [0:0.39253324772459103] [0:0.45714241459081328] [0:0.444308181962147] [0:0.58380378891902651] [0:0.5754711690408415] [0:0.73500658304562783] [0:0.64581006106883254] [0:0.47145120706893634] [0:0.49403817694839769] [0:0.46597435529292919] [0:0.51447921242261097] [0:0.37244437623538384] [0:0.29757519744871286] [0:0.33843552238665608] [0:0.33289378851546458] [0:0.47022251037243984] [0:0.40893366865479086] [0:0.49222777584408195] [0:0.3720603159992707] [0:0.37963561535630397] [0:0.60698844636087013] [0:0.41387212440624149] [0:0.37715326668481397] [0:0.32430550602853631] [0:0.20628427344117109] [0:0.41119108287082151] [0:0.48639452318542103] [0:0.50074659874641492] [0:0.39716718509105625] [0:0.41754289187677046] [0:0.44093452932288429] [0:0.46243900179213143] [0:0.36162063581523712] [0:0.46887924873897646] [0:0.7297063705244895] [0:0.50074284248510426] [0:0.37557144207851018] [0:0.6082791512661555] [0:0.478166764711626] [0:0.4868589974957514] [0:0.4740775043555891] [0:0.48912620946223501] [0:0.42204253815922627] [0:0.37668923591459191] [0:0.53529831539746886] [0:0.42316095692424655] [0:0.39256929717692873] [0:0.46024706283142724] [0:0.51249294056789241] [0:0.45827015356746209] [0:0.48320097571840154] [0:0.57457690384538329] [0:0.7065558174490868] [0:0.75623019281672166] [0:0.28694917032632999] [0:0.27470355146652792] [0:0.39423353451886495] [0:0.51170093060570709] [0:0.53240617706560533] [0:0.53287614435771669] [0:0.51570821726036131] [0:0.52612069727280275] [0:0.52606744150251739] [0:0.55420742979867887] [0:0.53146547189147619] [0:0.39843147388095229] [0:0.45207651261420184] [0:0.41084390218744921] [0:0.32758746485790913] [0:0.29890013329460552] [0:0.37971030032197106] [0:0.4263133170214512] [0:0.37281131559799946] [0:0.37544332243734735] [0:0.5037664892245689] [0:0.46749172615036994] [0:0.41276199090737348] [0:0.48248415212975782] [0:0.43309799080795353] [0:0.49126882414494388] [0:0.41797895349676301] [0:0.42284307789459846] [0:0.30854210837054213] [0:0.44335330736209649] [0:0.40319690464472563] [0:0.47324112786025019] [0:0.3799038367681315] [0:0.25629949412440728] [0:0.25751032409282426] [0:0.4093342331774586] [0:0.37885108172024023] [0:0.50614651909880015] [0:0.57855733105479124] [0:0.41993780265706743] [0:0.6630691640177121] [0:0.66260628728083559] [0:0.53707905019570445] [0:0.45024310985063459] [0:0.416110483971949] [0:0.26441634888800186] [0:0.26155023920307696] [0:0.24532311775223303] [0:0.38181841461609706] [0:0.44439538994269845] [0:0.39035483303791446] [0:0.36842312531232541] [0:0.33340996808673512] [0:0.39014108775917444] [0:0.40173624973027228] [0:0.50459197138826828] [0:0.6037326478225209] [0:0.49385559244429766] [0:0.4442468276038099] [0:0.2942872963276667] [0:0.22019239377753086] [0:0.4669293394901749] [0:0.47677749095335503] [0:0.52272438553068368] [0:0.48529674701098735] [0:0.43232083570976421] [0:0.36945490794465563] [0:0.22064525512265129] [0:0.41842918730617756] [0:0.38364780472837845] [0:0.28722737287080624] [0:0.81192632720710678] [0:0.43427211455329945] [0:0.39282179185691241] [0:0.3940897186686515] [0:0.45163685480868387] [0:0.37281046638841719] [0:0.3681034267480191] [0:0.54462531241604673] [0:1] [0:0.43935090236959695] [0:0.52140306468376807] [0:0.31094823966117946] [0:0.36992420952020738] [0:0.43850938240660348] [0:0.56139650139582919] [0:0.4156330809580091] [0:0.41351565291144454] [0:0.30765433802112135] [0:0.45853623460701093] [0:0.40227993853387239] [0:0.54218025016146465] [0:0.40004659143297971] [0:0.24481393681826624] [0:0.24483644120864773] [0:0.53836922417405908] [0:0.44888950062449862] [0:0.45611507198614926] [0:0.44841048198881772] [0:0.46077351109542097] [0:0.47227973911631649] [0:0.46999676762257381] [0:0.46969083459729744] [0:0.47154583733314992] [0:0.47237186644231816] [0:0.49168009335136054] [0:0.48175224822226254] [0:0.45651019981054519] [0:0.44795659760490869] [0:0.4730478742820638] [0:0.48682927391951336] [0:0.45666910089471818] [0:0.46269034819022614] [0:0.47170081632537308] [0:0.43524929054268885] [0:0.45653707925684617] [0:0.49102437704170049] [0:0.47201090229830112] [0:0.48311322834992876] [0:0.50367528479390122] [0:0.50179952558807561] [0:0.50139178646611571] [0:0.56154926782704973] [0:0.60967420858386112] [0:0.45937449969925459] [0:0.44474265392697199] [0:0.40781686851807208] [0:0.54049289076233431] [0:0.33098941610930183] [0:0.32351737661667795] [0:0.55337461802369536] [0:0.51064791763412121] [0:0.2458435172524657] [0:0.16272010784868821] [0:0.1627611117841955] [0:0.46035069614847623] [0:0.422822681411401] [0:0.42732063443309676] [0:0.43099633667132931] [0:0.54802030226706921] [0:0.42509910019695146] [0:0.32348469867162383] [0:0.32417215753792389] [0:0.40321335520754492] [0:0.31868106206374291] [0:0.31981127946853122] [0:0.53788896641306716] [0:0.62372602516697595] [0:0.33412358651110541] [0:0.37695948257108169] [0:0.33250561827112923] [0:0.35148849140375199] [0:0.3192110968487421] [0:0.44843223766091045] [0:0.45936817971021315] [0:0.48982874140915839] [0:0.49317586040910216] [0:0.571879000788724] [0:0.43450259773327965] [0:0.41794808549157969] [0:0.35725894278122855] [0:0.39972014104962778] [0:0.57612009439929268] [0:0.42502033331930289] [0:0.607638590743667] [0:0.50505398235698684] [0:0.40193626792316772] [0:0.37712379682513575] [0:0.44363162334829315] [0:0.39314728775465757] [0:0.5728015385099281] [0:0.41149437177945603] [0:0.41312792223366746] [0:0.70573116176526185] [0:0.46162847058331247] [0:0.46452597961494041] [0:0.57031420674402] [0:0.5359121307675474] [0:0.497285064618955] [0:0.40984145036536296] [0:0.50507748437897237] [0:0.57997110682912534] [0:0.33062458196767081] [0:0.45084751593107952] [0:0.3656116647183541] [0:0.36767973185285574] [0:0.47865276614585284] [0:0.52371833718908223] [0:0.39479031488888322] [0:0.3549239044049794] [0:0.35534587716649002] [0:0.35446616249870888] [0:0.30948296221728067] [0:0.38029070796896147] [0:0.50820733154326669] [0:0.5883516682784784] [0:0.43132423124626645] [0:0.43483190952760764] [0:0.49558971132419483] [0:0.5786717420294295] [0:0.5062673970083833] [0:0.51482722421012006] [0:0.39662309502102078] [0:0.74929626848902509] [0:0.40719157733483063] [0:0.36765241754763262] [0:0.52986196743486136] [0:0.49838874230265329] [0:0.52204783869764348] [0:0.30329958679063679] [0:0.42671573413723857] [0:0.35736274488309128] [0:0.52144424621143004] [0:0.39819398794784605] [0:0.41533716497458495] [0:0.34760125487108767] [0:0.36128762560520616] [0:0.38983128049064053] [0:0.33397029668679878] [0:0.40083970379226513] [0:0.37244047015032355] [0:0.57351419805914816] [0:0.3638821174399246] [0:0.49514379962901012] [0:0.47957982362508428] [0:0.42248296258848866] [0:0.46817271328984827] [0:0.53368418871096379] [0:0.45359791798385612] [0:0.17952526200984803] [0:0.30418277777754021] [0:0.10847251234392205] [0:0.10847829462592276] [0:0.10847925850126065] [0:0.44316814000143856] [0:0.4551236393158587] [0:0.46222561035421722] [0:0.53247795915011609] [0:0.37153459210284878] [0:0.31616499714680329] [0:0.47768661330328399] [0:0.46103225180928692] [0:0.46326332518378405] [0:0.46347837919174362] [0:1] [0:0.74895723951122117] [0:0.36101996466507841] [0:0.31613622396403501] [0:0.262289502192876] [0:0.26458511035075227] [0:0.40847364213420284] [0:0.38005938134912176] [0:0.60231062880078767] [0:0.48472213943877146] [0:0.65292460035799127] [0:0.51470884411599671] [0:0.54634005842217248] [0:0.46697185696543447] [0:0.35342297431333286] [0:0.47891971761734164] [0:0.47183652996745234] [0:0.48818865248095544] [0:0.30651200872595946] [0:0.26751619098278101] [0:0.45966610302790856] [0:0.63715549504889535] [0:0.35467259840757115] [0:0.34080904936083001] [0:0.31585669906618652] [0:0.44566851770368004] [0:0.34883035914010008] [0:0.34969051333447171] [0:0.37992814254675661] [0:0.20654748162010442] [0:0.15475162811840118] [0:0.53402520244863139] [0:0.48690743779199486] [0:0.45895302301449326] [0:0.4300290683857691] [0:0.37266973841966383] [0:0.41128457043937472] [0:0.45785970424163625] [0:0.52418446895520954] [0:0.43035899752970247] 